6651 30
60010002 1.3390508 -0.74212265 -0.055027187 0.64906496 0.6362579 2.2495124 0.47327232 -3.3570068 0.77869993 -0.9105918 -1.3484081 -0.7462635 -0.48403722 0.077392004 -0.5296121 0.4279999 1.7158666 -0.5787451 0.28903964 0.21590121 -1.1473823 1.9614881 -0.6366036 -0.87384534 -1.7796161 -0.1477977 0.61806417 1.2468305 -1.1609193 -0.32077333
33010129 0.43715835 -0.6892668 0.6141246 -1.0306866 0.5702121 0.7074085 -0.6923864 0.63940746 1.1735159 2.0600092 1.2188705 -0.8104572 0.73462653 0.22336258 -1.129855 1.1928194 0.71363044 -0.26167277 -0.9350772 0.22994787 1.0576628 2.1870043 0.4709207 -0.9395218 -0.5271537 0.25559148 -0.3061241 0.8372312 -1.8274972 -1.3917284
15020037 1.6649046 1.0207803 0.22404984 1.9432663 -0.2504602 2.2314124 -1.6159 3.848887 -0.27187148 0.4311494 2.591118 -2.4391882 -0.47047037 1.5768862 0.3897296 0.6126194 -1.3550793 2.7660024 2.4239047 0.0979149 -2.4606576 -1.4484241 -4.3506346 -0.4821538 0.28294 1.3496181 1.3480598 -2.373734 -2.828194 1.5978049
34010068 -0.20140725 1.5172853 0.56391793 0.80183935 0.57046115 0.76913923 -0.21522376 0.38733816 0.70355207 -1.8630887 1.6886717 -0.30025738 0.25093234 -1.7733886 0.57098985 -1.2178996 -0.038971804 0.08946922 0.13952333 0.7617505 -1.2845281 1.1125354 -3.4687676 -1.4534957 -0.71396077 1.2182289 1.0107694 2.1735616 -0.54092556 -0.24415506
34010157 0.14790468 0.546357 -2.0516324 1.5007918 -0.7370582 2.6419034 0.30973685 2.2635489 1.2658271 -0.56178033 2.1962028 -1.2073919 1.4666482 0.42796943 0.44929054 0.19891973 -3.6870968 -0.30339006 0.27696756 0.24815054 -0.5034173 3.0600033 -1.9714742 -0.59603256 -0.20108981 0.16053136 1.4881747 2.2456086 0.067156255 0.24444221
33010110 2.181385 2.1045911 0.61999696 -2.4175887 -2.091947 -1.1495694 3.9369385 -1.8428106 -1.544011 0.9661959 0.35377845 -1.2852228 -3.1306102 3.6093955 -1.526104 2.0382257 0.105339415 2.6098998 -1.6891518 0.48573625 2.4728775 1.9778847 0.01622946 -0.41083524 -1.8439158 1.0683942 -1.3937756 3.4661388 -1.754517 0.70522755
33010293 2.6767106 3.4972293 0.24623793 -2.5429254 -1.283556 -0.102237456 5.287221 -1.8578594 -1.9874128 1.2144636 0.84318185 -2.1834295 -2.9216833 4.070442 -0.758496 1.1648046 -0.27908048 2.7917297 -0.6310339 1.0881212 2.5743537 -0.395835 -0.2867568 0.07792992 -2.1246533 1.7872852 -0.47002387 3.6997142 -1.013976 0.12667549
20020058 1.6393253 1.051049 -0.007953296 -1.3978311 1.4300144 2.2155197 -0.5568924 -0.33292562 0.68717456 0.366368 1.26077 -0.20425436 1.0416312 -0.94089335 -0.14226443 0.15801641 0.41085458 0.822376 0.45706624 0.96903664 -0.045625433 -0.19528094 -0.92525506 -0.14614195 -0.9111442 -1.2257898 -0.16802292 0.6141224 -1.4792284 0.3774595
33010277 1.9875722 2.2436368 0.28544673 -3.0664558 -1.2392597 -0.85208285 4.9965367 -1.3882746 -0.88216794 0.83502644 -0.07426497 -1.3055154 -2.611448 2.2565498 -2.2098198 2.1955316 -0.14399405 2.220092 -1.7698046 0.7404922 2.373971 1.8604416 0.6798878 0.24513921 -1.6002381 -0.5377854 -1.0740968 2.7308784 -2.003999 0.5490175
21010021 -0.17984748 -0.81767803 -0.07397575 2.0033743 2.0391474 1.6010658 -0.5937927 -0.3951339 1.5662917 0.8290598 0.9261759 -1.0236005 0.6487236 0.06973784 -1.9542772 1.2328807 -2.9556472 1.0999247 -0.36946622 -0.2532564 0.65032417 3.2713864 0.10226739 -0.45871794 -1.489119 -1.4340675 -0.62909156 -0.94642144 1.5254382 -0.78318185
62010018 3.318164 -2.086902 0.004688745 0.7339778 -0.7671684 1.939313 1.1554098 -4.3252053 0.3786589 -3.9621825 -4.4286017 -1.1385514 -0.6875799 0.051824037 -0.4710655 -1.8096106 2.184628 0.23566808 -0.7704386 -0.26497763 -2.9853222 0.71618706 -1.6620408 -1.6235764 -1.2821854 1.917838 1.812769 1.2941934 0.5926296 -1.18142
00010014 -1.0648376 -0.84418684 -1.1023053 0.1491324 -0.40893358 2.7788787 -0.5818374 -0.11840646 -0.02985642 -0.77197456 -2.2039623 0.21327083 1.6042802 0.22012056 0.26429766 1.0809271 1.8992479 1.2613589 -0.24164814 1.2426728 -1.1073197 -0.34013438 -1.142221 0.056799933 -1.2816465 0.7183836 0.24068841 -0.29565704 -1.2799789 1.624536
40201996 -0.083294354 -0.2975641 0.06359276 2.5853968 0.60402924 3.0859435 -1.387177 1.0823064 1.4365352 0.54296726 2.0724201 -0.41975808 0.6865776 -0.36953714 -1.9447455 -1.6511568 -2.3248556 -0.062213104 0.52317363 0.8134607 -2.0531135 1.488702 0.8591087 -1.1063498 -0.9784149 0.806499 -0.6969149 0.324331 -0.4401076 0.30310047
61010014 2.722249 -2.0554621 -0.30815238 1.930369 0.48817068 1.2227575 -0.6674406 -4.6553473 0.95196396 -2.0423405 -3.7977633 -2.363898 -1.1298476 0.47416526 -1.3635144 -0.1759037 1.9011631 0.26306015 0.05775035 0.28936484 -2.0557938 0.5712947 -2.0621955 -3.2639308 -1.547548 1.9714106 1.8003198 -0.71558005 0.24584906 1.0971279
63010011 2.506482 -2.6390314 0.3637048 -0.14290373 3.3766067 2.5448494 0.27940366 -0.021217272 1.4537907 -1.336126 2.122151 1.0624607 -1.6397363 0.2123975 -0.67062736 -0.22343938 2.7826502 1.1352756 -0.29787207 -2.0877633 -0.69301444 1.2429994 -0.7192403 1.5674988 0.047241453 -2.5394363 2.2521653 4.056566 -0.62173307 0.4423243
32130040 0.68790615 -0.38993654 2.0154269 -0.51297355 2.0129874 -0.95951736 -2.408562 0.46242145 2.2697797 1.8955882 1.4278156 -1.8004496 1.245392 0.17706056 -1.8768886 0.0773464 -0.1431347 -0.19865377 -0.56347615 0.6882136 0.44047755 2.9181046 0.64845145 -1.7059988 -1.0313448 -1.239419 1.5380284 0.23399764 0.38897875 -0.8926444
34010130 -1.0897872 0.8615644 -0.76025903 1.4363201 1.0126635 2.0829253 -0.30756563 3.1539607 0.7224252 -0.42892244 1.2054834 -2.0505598 3.0341682 -2.6373644 -0.26093188 0.18661626 -3.5586898 -0.06956021 0.7066236 -0.16111565 -1.1813143 1.2390486 -3.2757611 -1.4574213 -0.841125 0.8856409 2.456272 1.8757582 0.2287844 1.4756778
25050028 2.5180414 -1.312004 -0.14056607 0.23024784 1.8772194 2.0344443 -0.20015942 -1.457135 2.3542092 0.63517386 1.4403998 0.9745354 -0.7736246 -0.5243119 -0.8717269 -0.46599907 -0.73641264 1.5005394 -1.0393549 0.029378438 -0.4669678 -2.1140752 1.8406776 -0.37937084 -1.334495 -1.5445925 4.83794 2.513345 -1.2227548 -0.081740916
25050044 3.8945785 -1.5976169 0.6663135 -0.5673892 2.205847 1.8693151 -0.9698678 -1.1872505 0.95264107 -2.2946994 1.8110127 0.98308057 0.43973392 1.3786293 -1.0769807 -0.70104194 2.8434296 2.5559015 1.279023 -0.42169777 -0.46001172 1.3286631 1.5595298 1.3791354 1.6315465 -1.7975278 3.956805 1.8965349 -0.71218103 1.9268363
33010048 1.2341764 -1.9012197 0.71601456 -1.131243 1.8325918 1.7165352 0.28281683 1.2252517 1.8914542 1.2643785 2.251252 1.3483397 -1.2585261 -0.48215848 -0.92326367 0.7715683 1.2637582 1.0873065 -0.47391552 -0.24839398 -0.7139457 0.38531452 1.6420995 0.17058773 0.9558285 0.5276744 1.0193661 1.7679346 -2.6371572 -1.6745187
25050052 4.6602626 -1.9399388 1.7261096 0.84067833 1.6864418 1.6331497 -1.17673 0.20963778 1.7032652 -1.5138799 2.167925 0.8438444 1.0689154 0.332201 -0.8447139 -0.58745944 1.9034636 2.3515322 0.55394715 0.7171678 -0.6536682 0.4638529 2.3720894 0.90925586 0.9682533 -1.2097479 3.8272142 2.4486337 -0.42415136 0.85068125
25060147 2.860489 -4.4469867 1.4910957 -3.1466863 1.7816508 2.350808 0.034347713 -0.1827246 1.6141208 0.94958603 2.0192616 2.1352484 -1.1519485 -0.54635787 -0.34531626 -0.047654826 1.2719539 2.97972 -0.8536078 -1.6846336 -0.94511545 1.2729753 0.64700127 1.2217557 1.7118857 -1.8596246 2.660006 3.3035932 -2.0281832 0.89847994
01990004 -0.6813189 1.943464 -0.89570445 2.219276 -0.7364627 2.743855 1.4965351 3.2310426 1.9790676 -0.85504276 2.4345596 -0.38001406 -0.2857044 -1.6792848 0.29715464 -2.2428114 -5.0322704 0.7366937 2.7413936 2.4381623 -0.1287498 0.12599123 -5.551185 -0.019750021 -0.859481 2.6538537 1.1265953 2.4425123 -0.27717903 0.017019501
17010020 1.2293308 0.4748 1.4395411 5.498177 0.24100088 0.30319512 2.1089199 2.0031815 0.2436657 -2.1276824 0.8614494 -2.508901 0.34562835 -1.4320091 1.0210495 -3.0779543 -2.004789 -0.946705 -0.47934592 0.3621053 -0.28938198 -0.88800395 -5.10906 -3.28612 -2.1226773 2.5061915 2.5506313 2.722377 0.9636493 1.591353
33010145 0.9779809 0.85469234 0.63582784 -2.8416512 0.26435152 0.048431855 0.91962487 0.98589563 -0.32519758 0.9408184 0.88695234 0.9434376 -2.55243 2.4480128 -1.6230342 2.2141042 1.0492197 0.7811963 -1.3342001 1.5487825 0.6633824 4.028562 0.6950153 0.27547923 -0.896205 -0.6701636 -0.62302125 2.1518776 -2.4774883 -0.83163387
80043755 -2.328179 0.7982719 -3.9677405 1.3051014 -1.9251682 0.36249352 -0.32275918 -0.31151968 1.0739983 -2.869657 1.9778496 -0.29105696 1.0119364 1.2727078 1.7983747 -0.7255571 -0.6981893 2.4551806 1.0958501 2.2039623 0.5919673 -0.043915085 -3.2348948 -2.8469627 -0.6546686 2.8386745 1.1011926 0.3890869 0.040309608 2.2748787
00010308 -0.37997174 3.4407392 -1.5826942 1.2131835 -1.8214115 2.0608826 1.7432711 2.2939763 -1.0377773 -2.1490655 2.2453947 -0.5234505 -1.7999943 0.52564985 0.25012895 -0.85703826 -2.5276003 1.6268485 0.866266 2.1482797 0.3165012 1.7395142 -2.9038126 -0.7976124 -0.43111992 2.7622886 -0.024935352 2.3848763 -0.4748892 -1.2242036
22010130 0.9321862 -0.10187886 -0.32038203 1.7463337 2.8828301 0.831108 -0.09573662 0.87742037 2.9656675 -0.7314888 2.6931987 0.35286528 -0.30667418 -1.1900673 -1.3297434 -1.0249257 1.5961024 1.1010145 0.260235 0.43579885 -0.5332937 -0.916397 0.47071117 0.12001577 0.03219397 0.3448584 1.2017753 2.3868392 0.017994272 -2.5287242
50010263 1.1119425 -2.6048832 1.0306963 -1.521845 -1.4617023 0.41818005 0.50079346 -3.2773 -0.99464035 1.2601304 2.06914 0.65610725 3.2007685 -0.8026846 -4.0094337 0.09482124 0.8456626 0.94495976 1.2154928 -0.34821773 0.8847402 -1.1364907 0.13980187 1.1137774 -2.6693943 2.3839555 -0.7058345 -2.2784839 -1.6577833 0.3278728
34010033 0.13340986 1.2289251 0.35244626 0.5148098 2.2995362 1.9412974 -0.6790166 1.2826867 1.3310736 -1.8805547 3.514979 1.8469086 0.23511933 -1.1974334 0.5016989 0.6802679 0.70108145 0.49152717 1.1384487 -1.9322119 -0.44606283 1.7786288 -0.94525164 -0.16408956 0.51518357 1.3027383 2.047062 1.9688344 -1.2464973 0.4477736
36010014 -0.39464927 0.66856754 -0.69266284 0.84478 1.7617917 0.2239685 -1.2681218 0.0004662395 1.8802438 -1.5392834 0.17423984 -0.68220544 0.566371 -2.5099056 -0.6526822 -3.682556 1.8169258 0.9006539 0.0704076 0.50978523 -0.80390924 0.50112396 -4.2062545 -0.5705935 -2.6651435 3.162196 0.075789906 2.9728026 0.5241668 -0.4263357
34010084 -1.0866163 1.0280879 -0.1882337 1.1325145 1.136052 -1.1392082 -0.07754405 0.34816414 0.80069494 0.02334183 0.8616468 0.21095544 1.0659347 -2.308148 -0.96674055 -0.5733921 0.7451112 -0.25567016 0.15193802 -1.3439637 -2.3134735 1.3796345 -0.6824953 -1.3694552 0.94064486 0.54327255 0.46310684 0.49688432 -1.5766307 0.9871027
36010049 0.5263639 -0.35548452 -1.4254591 1.3161211 2.5552099 1.5377741 -1.4166133 0.96430606 2.909187 -0.29383886 2.5684516 0.38750926 0.51403755 -1.565455 -0.97628385 -1.4700367 2.3897955 2.1677995 1.5237573 -1.5214125 1.121914 0.21793425 -0.16930422 0.79550385 -0.28054884 1.5216198 0.1975257 2.387952 0.27428514 0.9880508
41301080 2.3831894 -0.19419849 4.711769 0.48585626 -1.9736533 2.4893665 1.8303218 2.2308245 0.7631822 0.3417444 -0.72089237 3.8227084 0.81641954 -0.15518351 -0.7781441 -0.75538725 2.0594757 -4.935068 -1.1386907 0.6706875 1.4403373 0.12361375 1.1298894 -0.21772684 -0.31888407 0.60593206 -0.33318865 -0.6549464 -2.5782225 2.270803
32080085 0.6646364 -0.8269181 0.75076485 -1.4533559 1.7778537 1.8726338 -1.9208648 1.184281 1.1452794 0.639426 2.2184286 -0.08377155 0.97919846 -0.95876324 -1.8650048 0.009193805 0.16530159 0.17534003 -0.052954957 0.3860268 -0.3909929 0.73643124 0.7268025 -1.2763261 -0.6445412 -0.60857743 0.2975201 0.7105313 -1.5217984 -0.3998382
33010234 -0.39328998 1.4163136 -1.3181956 -0.3565278 0.69294274 0.6475751 1.093955 0.68125945 2.0957518 -0.0034577101 3.3820674 -1.7628378 -0.25095716 -0.19863924 -0.35219595 0.4094908 -1.5120556 0.41857204 1.7908818 2.1341362 0.24297331 -2.092629 -2.8217607 -2.3689947 -0.7382856 0.8377552 -0.28914845 1.8196692 -3.019128 -1.8001729
41099001 -1.6231081 1.6001725 -1.2495917 1.8586808 -0.99202853 0.770488 0.385952 1.2137538 0.0010123661 -1.6704866 0.61375666 -2.868947 3.6124022 0.5364552 0.36869308 -2.2418504 -2.9325213 -2.0565531 1.0364146 0.85701317 -3.003775 1.7590039 -3.6379342 -2.051227 -0.32419038 3.0462084 3.4025578 3.4960518 0.2115925 -1.96696
50010212 0.43456653 -0.06085188 0.8392774 -4.2409496 -3.1526914 1.9165208 -0.31819525 -1.2242619 1.4050778 1.0856332 1.7935835 -2.0597606 -2.0848434 -3.4236543 -2.6159744 -0.20004761 0.9318331 2.3847594 2.0822878 0.13815263 -1.1028274 0.73518 2.2245862 -1.0064323 -1.267604 0.21282244 -0.5435828 -3.580491 0.29596543 1.1459303
45080194 3.8100693 2.6852627 0.74533683 -2.2820103 -0.87917346 -2.3243816 6.3162518 -1.3088249 -2.919442 -0.18101676 0.5085213 0.9211131 -1.4676851 3.8746748 1.0832875 2.0552254 -0.9398442 2.2942507 -1.8925132 1.3599991 1.2563101 -1.5938505 -0.47399798 2.006094 -5.2064514 1.7398953 -0.5819411 2.1836488 -2.2878304 -0.42854875
20010133 0.96032465 2.0366952 -0.06347252 -1.2104733 1.247906 2.0809824 0.37188128 0.46057278 -1.3112316 -0.67032963 0.091398425 -2.1316416 2.0837786 -1.121 0.9120065 -0.60235703 -0.522989 1.9113802 -0.05351416 1.7887655 0.18914776 -0.70634 -2.1049714 -1.100015 -0.9335833 -0.7178637 0.112718225 0.46552193 -1.944138 -0.25131294
41101227 1.719914 0.12859555 0.44098154 -1.014026 3.2704225 1.5158566 0.5555527 2.430034 2.4166381 -1.5826578 1.0513874 3.8884795 0.3105403 0.08843356 -0.32295305 -1.5498012 1.7196244 -2.3248308 1.3624356 0.35559016 -0.7617286 0.47334608 1.2450213 0.7822634 1.5841548 1.1670957 1.9644407 0.2780725 -0.67889994 -1.0324618
30909031 3.025826 1.7200211 0.31114778 1.0259722 -0.83084494 1.525841 -0.40148613 0.9751921 -0.26516294 -1.2567296 0.50354105 0.49735332 1.2646191 2.6213057 -1.8265923 -0.075107604 -0.9209846 -0.65943813 2.5685778 0.18661043 -0.35366175 -1.441296 -6.536684 -2.3658433 3.3114572 -1.1147944 -2.8343608 0.08210892 -4.181668 2.748375
36010154 0.041868728 -1.9434385 -1.3197732 0.6855711 0.82751 0.19573088 0.19188258 -0.7945453 1.9287369 1.0322713 1.6913745 0.29305452 0.5759714 -1.5129157 -0.29646656 -0.8083333 1.5419778 1.7070738 0.9084769 -0.67493063 0.6593096 -0.868304 1.8504345 -0.8977841 -0.24980474 -0.84625375 0.5420802 1.5806435 -1.3371028 0.65611845
80043577 0.16913104 3.0470803 -2.3851624 2.2168148 -2.3664312 0.5549494 2.263848 1.710245 -0.009620782 -2.8695903 2.1177754 -1.1826915 -1.6340843 0.74038166 1.1035743 -0.90984607 -2.5543866 1.7096586 1.5534376 1.6635326 1.1635115 1.1203436 -2.5317304 -1.5230452 0.29244533 1.325555 0.3900451 3.0204134 -0.9338129 -1.3758274
33019991 1.1142254 0.88413334 -1.2568952 -0.5057189 -1.6793299 -1.2684772 0.9599427 2.5003395 1.1464572 0.28617644 1.3096532 -3.385076 -0.48652834 2.0498254 0.84004945 0.6977728 -0.9088544 0.7744082 -0.333817 0.46517912 1.4918853 1.3949457 0.7820642 -2.1088595 -0.09158755 1.2712817 -0.23965313 2.0461974 -3.2177205 -3.8724282
36010103 -2.0722175 -1.695889 -2.802713 1.3941607 0.6081357 2.4924183 1.2859799 1.1864765 3.2233627 0.8642496 1.741298 -0.3702595 3.0370576 0.8099258 -0.642899 0.5250089 -0.25354847 0.5130039 -1.3661757 0.109448105 0.85783356 0.80207664 -0.50697803 0.9045314 -2.516043 0.6858885 -0.8022067 2.9607565 1.1584878 1.7902597
41101316 0.9679594 -1.5347167 0.08861165 -1.4415038 1.8273505 0.54574406 0.8600049 1.1187061 1.8473471 -0.1639308 0.7915016 3.2697234 -0.23060593 -0.32452068 -0.14017315 -1.9012681 0.50021315 -2.1541827 1.0350751 0.38741836 -0.4812652 -0.66748744 2.7400336 -1.0221349 1.2236254 -0.6188851 2.6140876 -0.05595447 -1.7846366 -1.2177314
45010072 2.1532888 2.6454785 -0.39125443 -2.4986482 -3.5909207 0.061319456 4.4445925 -3.191856 -2.9365954 1.5832307 2.0521057 -1.0786724 -4.006823 3.3783433 -0.024700388 1.3934485 -1.3451037 3.4654248 -1.9792966 -2.0437338 2.2917268 1.198978 -0.6503043 0.10095519 -2.3862875 2.4051192 0.32219425 3.6842794 0.24359456 0.4858858
33010242 0.18250835 1.0696181 -1.7500436 -1.1538373 3.4366605 1.0065411 0.0259858 -0.83684534 1.2226163 -1.1721725 3.0753736 0.7036276 -0.17079982 1.0468358 0.26815432 1.4454112 -0.6200948 0.84537673 0.7305665 1.843926 -0.03979443 -1.7842143 -2.4364574 -2.1242077 -1.4447064 -0.53861094 0.42721173 0.013017478 -2.2292159 0.020973569
25060066 -0.19622003 -3.9102528 1.170172 0.02520328 0.59571046 1.864569 0.91845715 -1.7626462 -0.743447 -3.1806536 2.415381 1.0767459 -0.43155587 -1.0242676 -1.1050675 -1.6560094 0.2791416 2.8519633 0.329643 -0.024933508 3.0676897 -0.46696883 1.0144339 -2.2543812 -2.8518424 -2.5119433 1.6957783 1.7062136 -0.060232185 -0.71531075
25050010 2.3109055 -3.197398 -0.13576488 -0.44799015 -1.2053927 0.8188379 -0.45990527 -0.99847776 2.5096745 -0.679862 0.7999449 1.5331146 -1.5740027 -2.4555702 -0.94307643 -1.2575114 1.3215662 1.2776049 0.17413259 -0.3938103 2.370926 -0.21966973 1.0049295 -1.5359027 -0.68497473 -1.7009381 4.0396514 3.0347633 -1.8010129 1.0046668
30020042 -1.2613893 0.37061602 0.0037765887 1.7085863 0.09688224 5.1284504 0.9890787 4.868628 3.22116 -0.39108175 0.9399978 -5.0259757 1.4429212 -0.14888477 -0.47687173 -1.4910215 -0.16020145 -0.70590276 0.15209779 1.3931694 -1.1742284 0.6670623 -1.4450788 -0.5911222 1.0000957 1.385219 4.3567266 0.27236846 2.0664365 -0.18775173
41301269 4.355635 1.4654294 0.71933043 -2.6044462 -0.80162734 2.7152858 -1.6416312 2.9987223 1.202261 0.9976471 -2.2319274 1.3471366 -4.1301875 -1.5039108 -0.6799845 -1.5966947 1.3788165 -4.4987803 1.332117 -0.4592117 -0.08976543 1.9795263 -0.47069594 -0.66464484 0.81423426 -2.493199 2.8582559 -1.4051504 -0.93080926 2.092248
32080050 0.05900509 -0.025807729 0.862617 -1.5093458 1.7076511 1.9511995 -1.9738421 0.03592287 1.1160195 1.2133552 1.4945527 -0.38880357 1.2909395 -0.44929925 -1.4986709 0.38620833 0.7114042 0.4295635 -0.32044563 0.96532583 0.17450462 0.83828396 0.9181394 -1.187533 -0.8806418 -1.1086744 0.50964314 -0.19931239 -1.1098851 -0.3546104
33010021 0.8391181 0.59264 -1.7382847 -0.38810292 -0.3133283 2.0279484 -1.3184161 1.2516181 0.18488564 0.7143406 0.9898535 0.0028033692 1.0293138 1.0551285 -1.1105542 0.41510588 -1.2709657 1.0379659 0.058871392 1.6275903 -0.049494885 2.2907436 -0.67777544 -0.37166798 0.39930248 0.50334316 -0.8613933 1.7298838 -1.5054337 -1.4275055
01990047 -0.9619341 0.21470693 -2.1069832 0.46365145 0.65233827 0.012518936 -0.30323946 1.1933122 0.4558717 -1.2127674 -2.0612721 -0.22105749 1.3688529 -0.095435075 -2.5344963 -1.367367 0.75378966 -0.38018158 -0.33366784 -0.9245426 -3.4944527 -0.78015053 1.0174446 -0.28546146 -1.7797338 -0.35676286 -0.53905076 0.84471387 -0.5715616 2.8784459
41199006 -0.9678124 -0.19580902 -1.8050257 0.71999687 0.98934394 1.9220239 2.14146 1.3988245 4.5578814 -4.3090916 -0.51827675 -0.43315202 1.8125191 -1.8659844 0.99106413 -2.2303815 0.79252285 -0.580859 -2.4596984 1.1822995 -2.418868 -0.5801662 -2.755668 -2.0093844 -0.7061216 1.7982497 -1.7398638 4.415284 2.717044 -1.1261168
42030072 1.71488 0.20163621 0.08516269 0.42639 0.8255333 -0.15436493 -0.32324287 -1.7812635 -0.9895186 -0.021227663 3.3692124 1.1477169 0.844364 -0.06654768 -1.0270861 2.526143 1.4810681 -0.23001254 -0.42967224 0.734876 -1.8553426 -0.24570225 1.6685469 -1.6652888 -2.1176624 -3.0075138 -0.2842517 0.76617837 1.2109159 -0.31743595
20010028 1.7273995 0.88586634 -0.6381549 -2.2794638 2.2505982 2.0071137 -1.408472 -0.7478218 -0.40941522 1.1211928 -0.025680203 -1.3121228 2.1223269 -1.150317 1.3919481 -0.35962883 1.1244048 2.0830178 0.88632834 1.4741113 -0.9043413 -0.3629249 -0.12700334 -1.2150631 -0.9754102 -2.4806018 0.003318842 -0.6541488 -2.092622 0.2854969
31309054 3.5306633 1.7367125 1.250519 -1.6046501 -1.7160379 -2.9916344 5.5477 -2.0945897 -1.0771968 -1.0361615 -0.41094145 1.5238831 -1.728276 4.9952874 0.6234721 1.51217 -1.0504545 3.0276167 -3.479047 1.9949552 3.8120294 -2.408104 -1.0555924 1.9541986 -4.264516 0.46465307 0.61031353 -0.20723882 -3.240542 -0.64284074
10990003 2.972553 0.27663404 -0.83870494 3.8074148 -2.3559008 -0.64264435 1.3169675 1.9779366 -2.0093417 -1.7389818 -2.6612482 -0.2917047 0.69386053 0.5867134 2.7243137 -1.0652249 -1.0211532 3.1473534 0.013383729 2.000619 -2.3382945 1.4400282 -3.5927236 -0.7952048 0.08541758 5.943095 0.9468249 2.8593154 0.6610362 -0.7692276
34010106 -1.5780475 0.005094284 -3.7942169 -1.2401536 0.20084146 3.7900195 -3.4697287 1.9842098 -1.3846056 1.5717325 2.9534454 0.59338516 0.30793187 0.514504 0.9628099 0.4647426 -1.4507984 -0.6671413 2.5452895 -0.13068844 -1.0071712 1.6489222 -0.107072525 -3.2332556 -1.7366276 3.1276271 3.1635072 3.286384 2.6043823 0.62138456
45080186 3.5351787 3.070676 0.83304113 -0.98978555 -1.9705862 -3.4959674 5.56815 -1.3757857 -2.2798076 -0.06613653 0.9641889 0.6144782 -2.6758997 3.2318087 0.7880486 2.008251 -1.106722 4.1362023 -2.4070396 2.0551257 0.65277994 -0.38163477 -0.064370856 1.3910661 -4.7907457 1.491176 -0.32449093 2.5704634 -1.0508391 0.1459664
23010037 -0.5298195 0.14138725 0.59191936 4.0251007 0.9455971 4.4013157 -1.463442 0.67414343 -0.093813054 0.8684806 1.4669598 -0.5802051 1.2044411 -0.034855623 -1.4903634 -1.7095747 -2.5559266 0.59041625 0.6425929 0.71509975 -1.540119 2.0658948 1.0774857 -1.3873987 -1.5647321 1.1628624 -1.0056643 0.36698928 -1.7884476 0.5755149
41101014 0.64149725 0.58299667 0.28819373 -1.9336936 2.4131289 0.853817 0.028687147 1.6313356 0.62240666 -2.1293457 -1.0644945 3.3126268 0.010441731 -0.98218745 -0.7085401 -4.3730445 1.0733213 -3.613896 0.22471997 1.7305001 -1.9346551 0.832699 -2.7474308 -0.34427798 -1.2311872 2.4597535 1.6498415 1.2911289 -1.7396151 -1.4506692
28010000 1.7293051 4.7265806 -1.9650865 0.0998131 -0.037180148 1.3973758 0.76053816 0.3736528 -0.4645204 2.0183485 -0.80390334 -0.008850637 -1.1421448 1.4311252 0.2799326 0.9375301 -0.90114814 2.368168 -2.1378186 1.1091355 1.4931589 -2.0610807 -0.6397562 -0.48279253 -1.5175084 3.0855262 1.5183147 1.9045633 -0.34783685 1.9760103
34010017 1.2915416 0.3113288 -1.6199744 0.9482001 0.29727837 2.7716901 -0.4997198 1.2451223 5.195855 -0.2264423 1.0829823 -2.3676906 3.7462811 0.46529433 2.456165 3.7897766 -3.728327 -0.34265128 2.426134 -1.8519164 0.23161179 2.8093975 -0.54051125 -2.803164 -0.9571206 0.45063087 -1.1213304 1.1835403 0.5991124 4.667589
30020034 -1.0650318 -1.8817216 -0.59878933 -0.88668615 1.9783179 4.2453203 0.58221734 3.5133417 0.104501426 -2.3233845 0.7673531 -1.3816217 0.987444 0.96899825 -1.5774287 0.11316829 -2.166041 0.6105768 -0.305289 -0.21766423 0.43585616 2.6082265 -3.6915336 -0.30519798 -2.6155663 2.2709796 3.058004 -0.80840814 0.5297276 2.848266
30101468 1.1608765 0.17112386 0.4399835 1.2241833 -1.0381511 -0.041610435 -0.31432587 0.017315408 0.17478438 1.1319348 0.8287252 1.068568 -0.18052559 -2.6300342 -1.0738674 0.97782356 0.47656992 -0.17401065 -0.2647972 -1.0676428 1.0422001 1.0827026 1.4944141 0.31398788 -2.1593304 -0.6987432 0.5294583 -1.4565588 0.489596 -1.4884363
30101298 3.8774562 -0.19887686 2.448645 -1.2239163 0.6636134 -0.27229017 -0.14545822 1.6648304 -0.59274644 1.3968416 -0.55001307 4.3451486 -0.1137252 -2.3829162 -0.7656992 0.53405726 0.29536456 -1.3440123 -0.07225036 -0.4768662 0.1570175 2.5830104 1.948787 0.662329 -1.8454998 -2.0767758 -0.1985091 0.5032324 0.12868594 -0.7073024
45050015 -1.8618308 1.1100059 1.3303598 0.1219976 -0.5807576 -0.5638059 0.84984136 -1.756061 1.5668617 1.918829 0.86665934 -0.73664284 1.9307002 1.4195691 -0.38154754 -0.2059082 1.3711227 1.3545474 0.83261 0.07685313 -0.5141716 2.1221101 2.3401666 1.6615942 -0.50455016 -1.29538 0.4703741 1.3395745 -0.19666226 -1.6190469
45990026 0.79806876 1.8601394 -0.35225123 -0.14167121 0.07644274 -1.1265347 2.0705528 -1.4901203 0.12838125 3.0497656 0.897708 -1.5896122 -1.6631004 0.5994702 -0.6620485 1.0374137 2.4242232 -0.069388874 -0.72623885 1.2487726 0.47225592 1.4225191 0.36114442 0.17363614 -1.7277343 0.11652803 0.7619075 0.8098867 -0.14767146 -0.76838714
40202992 0.71805555 -0.30945137 0.29540384 2.0212038 2.4109702 3.7102818 -0.65514326 -0.32276717 0.27083462 0.7241415 2.0557292 0.4982543 -0.22489706 -0.21562645 -2.1958485 -1.4321773 -1.7910808 0.81610906 1.1766214 1.8794687 -1.8156604 1.0911069 0.99495894 -0.5355043 -1.9204504 1.0532086 -0.99918365 -1.4990898 0.53080565 1.1210974
40303110 5.7289333 -1.9999509 2.8753848 0.24249479 0.5724104 0.76396984 2.4751384 1.450322 1.5645536 -0.19564062 -3.1180234 1.1720093 0.23191282 1.2958692 -3.3354394 -2.6599343 0.8758944 -2.4164083 -0.28469646 -0.5088883 1.3657311 1.729727 2.822383 1.142109 1.7110413 1.7955395 -1.9779423 -1.9913573 2.6080956 0.60389704
50060040 1.8686451 -1.1184653 0.27350098 -1.6863365 -1.0642828 0.94842756 0.3074539 -0.16832979 1.3460256 -0.99759185 4.0933857 -2.6410031 2.9271219 -1.9850194 -3.6546414 -1.8879244 -1.2904874 1.1623231 0.16921501 -0.29059407 -1.2992105 -1.5125539 0.39524433 0.17320631 -1.4788289 0.1624059 0.6444538 -2.357297 -0.43362334 -1.3276685
45010021 -1.7980195 1.2312727 1.1734052 -0.98132074 0.08218058 0.2791691 0.8168523 -2.1917298 2.418685 1.5228598 1.1277871 -0.02379081 2.2128406 1.81281 -0.45173162 0.45198348 0.96584356 1.90452 0.35110247 -0.017522976 -1.1282704 1.4404323 1.6629041 1.4592482 0.7810656 -0.8769762 1.0137441 1.4623635 -1.0428333 0.14051716
51010194 1.8282379 0.7350835 0.84580046 -0.32340676 1.207275 0.68508095 1.3538858 -2.6358755 -1.1359619 -0.49995437 0.28036293 -0.66984195 -0.18911164 0.46376252 0.15665999 -1.1966361 2.0382214 2.5980663 -4.886198 0.8694485 -2.325752 -0.69080544 -1.2866112 -0.08559572 -1.6154466 3.5050385 0.05430782 0.085727446 0.7185806 -1.9645545
28050703 2.0147731 2.3538177 0.66838044 -1.8242137 0.65460134 0.3257172 -2.273426 -1.5439683 1.9652162 -0.09375822 -1.7183554 1.1290438 0.29159564 0.9590972 -1.2734331 0.3650861 0.7859209 1.586002 -0.91523576 1.678231 2.980714 -1.12718 1.6457834 -2.4219816 -1.4949996 0.5469558 0.114693075 0.039956313 -0.99928784 1.2764139
15010023 -1.4242752 1.0981166 2.631722 3.592197 -1.0934529 1.0619826 -0.54643637 3.4766266 -0.5773147 2.2945614 2.2118356 -1.9269776 2.8893578 1.0766219 2.9584846 -1.6528653 -2.0744164 -0.46537402 1.9970239 -0.34696704 0.47971138 -1.6267614 -6.1362314 -2.4716268 0.69136447 2.1951103 0.19176108 2.0418317 -1.0746207 0.88430387
20010141 1.6298659 2.328241 -1.1467301 -0.049828947 1.4651278 1.9977843 -0.80099505 0.049961563 -1.1713418 0.014721968 -0.2751729 -1.9659615 2.2729845 -1.4393262 1.2362195 0.3158922 0.9004984 3.076204 -0.10961458 3.234009 1.0103971 -1.7891132 -1.795473 -1.7353055 -2.1809323 -0.142046 -0.64039034 -0.02219425 0.15100797 0.9739108
40201210 3.1609554 -0.8032152 2.432712 -0.17949842 0.38367614 -1.0979264 2.0531712 0.41492164 1.4292898 1.176975 -1.7182229 1.2960587 0.38006634 -3.0717716 -1.1908642 0.86543566 3.086489 -1.3146472 1.3673183 2.304842 0.17157888 2.378965 -0.4665401 -0.96854264 2.3705904 0.7192858 0.104367316 -2.9990737 -1.5413808 1.9657241
10101012 0.17936242 -1.6644914 0.0771697 2.3472252 -0.7221271 1.7128583 -0.37454593 1.149461 2.0452826 -1.1120391 -2.5643547 1.8908565 1.0076535 -1.3656272 -0.11669014 1.3644571 0.7518323 1.6290649 -2.4991863 -0.5421816 -0.092937045 0.25371572 -0.76672995 1.3816681 -1.3456694 0.5769038 1.1669068 -2.267495 -1.3288819 2.2928846
40901084 3.7426822 3.4537203 1.3585849 -3.4160082 -1.5489222 -2.3753457 3.1019151 -0.37247908 -0.3285534 1.7274519 -1.8545519 -2.832629 -2.53887 4.3818364 -0.7163217 -0.038860932 0.31682006 1.4804304 0.25099668 1.9636464 2.3699288 0.2718179 0.27022582 0.3067897 -1.0648254 0.11014491 0.76188344 3.2318952 -2.169579 0.114366576
31600000 1.8824645 1.1818956 1.3688304 1.9448348 -2.2746758 1.240798 -0.5023328 0.7534186 -0.4655707 -0.9010216 0.3168343 -1.2046158 1.9182327 -0.63437015 0.815322 -1.1510919 -1.4138802 0.8050055 -1.8806556 -0.30578673 -0.89583427 0.98466533 -2.8154895 0.9392384 -2.3021262 3.6632988 0.21393207 -1.4734497 3.2516153 0.16217427
40103137 2.7933452 -0.40997252 3.2778952 -1.308402 -1.0702493 2.456603 -0.23765042 2.5106258 0.7695934 0.3041321 -0.32241988 2.471823 -0.5231554 -0.7911544 -0.2567653 -0.22626612 2.1885812 -4.451288 -0.30147272 0.013277933 0.5078109 1.0032704 -0.022544365 -0.800127 0.06635933 -0.7478717 0.69015193 -0.5186357 -2.545113 1.5357392
51010399 2.464758 2.3643026 0.61992794 -2.2033975 0.47563234 0.054386526 2.6087193 -2.7049253 -2.198061 1.1684749 -0.71378887 -1.4128264 -2.9055204 2.467783 -0.38637194 -1.1062671 1.0768862 2.6782463 -3.2907915 0.15769784 -0.439131 -0.44059443 -1.0311983 -0.03615947 -0.2506848 3.624184 0.6949445 1.0420072 -0.48666322 -1.5135558
20104294 -0.70716274 0.44255093 1.006923 2.7265017 -1.455603 1.8471963 -1.1360623 3.363235 -0.95092684 -2.47986 1.9524081 -3.1190004 1.117273 0.42539707 -2.9416645 0.8983198 -0.5854545 0.77226025 0.26896325 -2.1792095 1.8278662 2.2544713 0.2118368 -0.8041326 -5.5580225 1.8093672 2.7217042 2.7080178 0.99147433 1.2334614
34010025 -1.5146995 -0.6268803 0.26655132 -0.3763329 0.15308073 0.33415753 1.1123003 -0.48320693 0.90154606 -1.4126643 2.8551168 1.1926339 0.46239993 -1.5909661 1.8765746 0.28626066 -0.8309791 1.2478471 1.7043105 -1.7462249 -0.020557854 -0.57802784 0.97974014 -3.0549486 -0.17029421 0.80345 2.6599612 2.1781828 -2.2863944 -0.26754785
51010410 1.2125481 0.609746 2.2385566 -0.3370572 2.4587054 0.12063896 -0.6674284 -3.1179705 0.7374879 1.2261643 0.21425699 1.1954678 1.9728017 -0.42287588 0.80077916 -0.34850165 0.9617867 2.6133976 -0.62712646 0.031798758 -3.312242 0.79808134 0.4123017 -1.1095374 2.8472908 1.4637398 0.35798156 -0.502427 -0.3223916 0.050762907
40601250 0.8690189 0.8085516 2.8303926 0.29883376 2.0878947 -1.9234312 -0.7581271 1.2105144 3.239544 1.2058803 0.4385757 -2.127323 3.9667315 2.608325 -1.3032753 -0.18874788 -0.2958237 -2.8046503 -1.8383417 -0.41578877 0.45721662 1.323161 1.633305 -1.5738034 0.63617074 -0.45214528 1.9809716 -0.02270691 -1.56339 -2.8967295
20010192 2.2912927 1.3936188 0.45083055 -4.7957277 -1.432433 -1.5941513 3.5710053 -2.144057 -2.2748718 0.2887891 -0.3409056 -0.85306007 -2.119341 3.8848765 -0.059372783 1.2454774 1.0038918 2.9406855 0.11702507 0.5843186 1.376018 1.0876217 -0.565013 0.12258996 -1.2248479 0.40057883 -1.0091667 2.58577 -1.3124099 2.5222828
36010022 0.32727334 -0.59536237 -0.5222857 2.0778296 3.2818568 1.7617954 -0.68618363 0.739472 3.0228202 -0.6433415 2.6461942 0.7191579 1.0668724 -2.316455 -1.925775 -1.4495842 3.6510158 1.9543043 0.4216755 -1.3148012 1.2459011 -0.5616434 -1.3091366 1.2108645 -0.35030958 2.5774467 -0.09872948 3.1296453 1.3375579 0.84819984
31010040 1.7419214 -1.4744565 0.792806 1.5022521 1.9607464 1.50556 -3.0509858 0.6552704 3.495964 -0.36147183 0.8231186 -0.2125589 5.5293937 -0.13694134 0.268178 -2.3006701 -1.9864868 2.4552088 2.125171 -0.33173573 -2.4954984 -3.186666 -1.1579951 1.1687396 0.24827059 -0.5418502 -0.6126358 0.16830932 -2.217969 -1.2374365
40103323 0.35899314 -1.7352194 1.3968699 -2.4184399 2.277222 2.4480145 -0.27579415 0.31204343 2.7900474 0.1691687 1.1478392 2.969609 -1.4050391 -0.8028576 -0.025537344 0.39393863 2.3066335 0.84816635 1.3399465 -1.0217792 -0.65606964 0.45658803 0.8221042 1.0627615 0.64280456 0.74510443 0.75301135 0.4214149 -1.5054733 -0.049827874
80071104 0.710379 0.45061478 0.1784689 1.4409367 0.74366844 0.46269608 1.2443757 3.6460793 2.1187062 -0.75082636 -1.3938687 -3.065062 -1.1980498 1.5448875 -0.80728173 -0.5086673 -1.4682926 0.72351503 1.6640594 1.6796151 -0.27916333 -0.71041274 0.13557006 -1.3601613 -2.8444355 2.5687368 2.9599195 1.2006319 -0.2697923 1.2004935
25020153 3.4419377 -2.3634565 0.078666024 -0.3764856 1.0163146 -0.68721694 -1.5847585 0.4264369 1.442109 -3.4087594 0.40399376 0.63370335 -0.83084905 -1.3066977 -3.359225 -1.1723509 0.48921233 0.19679031 0.04531692 0.4286594 -1.1496416 -1.1296415 -2.9923947 -1.7627872 0.54643124 1.2904193 3.2660325 3.0019448 0.42355365 -2.7993948
22010203 0.090972394 0.44126478 -0.28754732 -0.38890654 1.6262654 1.0112592 -0.047913093 -0.8142675 1.543983 -1.9769942 0.6251488 -0.33690885 0.58902854 -1.4206032 -0.4133323 -1.9071999 1.8120074 0.45860124 -0.34787682 0.09588123 -1.7320153 1.0109664 -2.1985836 -0.06607896 -0.27087727 -0.50178677 -0.4294683 1.5939926 -0.67636347 -1.5528257
30101492 2.5020146 -0.2928293 1.9479065 -1.2939312 0.674896 -0.2852849 0.18046196 1.4648126 -0.64144456 1.3770508 0.120056726 3.763679 0.11775347 -2.7763302 -0.61433697 1.55166 0.42184144 -0.9965025 0.24124089 -0.7082582 -0.06461565 2.4055023 1.513088 0.29220012 -1.7489372 -1.4929444 -0.617442 0.5972879 -0.41617233 -0.62824076
25050036 3.086692 -0.80252284 -0.98079747 -0.38702852 1.1194241 1.5610799 -0.89199024 -1.1859672 1.7657918 -1.9550041 1.8190749 2.8891087 -0.48827258 -0.8710908 -1.7827476 0.3457175 2.3594446 0.9696933 -0.33159226 -2.1466727 1.8737451 1.2183431 -0.3155829 0.249544 0.6363613 -0.56923276 2.9316623 3.2681856 -0.712364 2.0779085
31005497 0.30090755 -0.06969816 -2.085527 0.025513444 -0.30190164 1.3053092 -0.8010157 0.0144876875 -0.34119868 2.4396703 1.1305487 0.4146984 0.5980276 -0.11719304 -0.06918326 -1.9693176 -0.10041057 1.443254 -0.56274676 0.52333784 1.834137 2.4851356 -0.6684339 0.97024935 -0.42580593 -0.9785704 0.32747328 -0.42831367 -0.5066001 0.12737268
17010047 1.1857877 1.8037376 2.4357147 3.8985095 1.9176564 1.7504102 2.0969422 1.6119889 0.21729755 -3.1495092 1.3537761 -1.554458 1.0307387 -1.2716349 0.728637 -4.2389297 -2.6382437 -0.80108964 0.5405197 3.2873874 -0.048818275 0.33191404 -6.657389 -2.6773849 -1.0211418 2.2177227 1.4204952 2.1647933 0.37096158 0.15774736
80053211 1.4455773 1.2019747 -4.2990804 2.50839 1.0006313 -0.49802607 0.41526985 0.29426458 -0.71922046 -1.024613 1.137025 -0.85217744 2.3595686 4.563927 -0.6924445 -1.8292869 -2.8794973 0.047977343 0.52721995 -3.5415263 3.4836166 1.2529922 0.21886568 1.09654 -0.6044949 -2.323482 1.0912571 1.384946 -1.7735907 -1.2677792
50030035 0.8810209 0.2128985 0.30722785 0.8569744 -1.0655158 0.54047537 -0.20175226 -3.0011158 1.4715507 3.2518733 3.5988746 -1.285622 -0.5086455 -0.35852993 -2.587921 -2.0242965 0.45031005 0.4001569 0.76637286 -3.307221 0.780094 -0.67707753 1.4707923 0.35934332 1.3881851 1.9684333 2.126484 -2.547241 -0.5868019 -0.583348
42030137 0.17671712 -0.23800643 -0.34674594 -0.49791938 0.73985386 -0.0061084013 0.5581788 -0.8440332 -0.8820972 0.82416815 2.64868 0.5567573 1.2983189 -0.8214405 -1.2575022 2.11869 1.5484505 -1.3111285 0.512782 -0.9768865 -1.5305411 0.90801775 1.0623658 -0.90621847 -0.2958262 -2.2983453 -0.8086265 0.7404043 0.45257804 -1.184238
50010093 0.97611547 -0.92441833 1.4969906 -2.2375357 -2.272188 1.1332401 -1.1194268 -1.9807491 -0.2149709 1.40549 2.120575 -1.0081893 1.049154 -1.7921853 -1.9670833 -0.29859576 1.4061916 3.1942065 -0.059508 0.61312217 -0.69479024 -2.1586666 0.056253105 -0.59076804 -2.3577116 2.6676354 0.08008336 -1.3030093 -0.2903535 1.658587
41101189 -0.96443117 -1.2003958 -1.9749173 -1.4494137 0.97056496 0.84633535 1.8680465 2.6516144 3.887208 0.039953806 -1.5796286 1.0745002 1.5230842 2.6755466 0.4040752 -2.0130858 -3.1421127 -3.066639 0.30482572 2.7508032 -1.6535871 3.1132588 1.151854 -0.6153838 -1.0912114 -1.1525974 0.8781073 0.07358031 -1.0867947 0.8566772
33010137 0.84375066 -0.57262087 0.42647856 -2.9715858 0.7710191 1.1317073 -0.7247703 1.5349677 0.019764055 0.55861455 0.72692984 1.8566383 -0.56262535 1.1131136 -0.76344466 0.96508175 0.8284677 -0.4585562 -1.024303 0.62143826 -0.18784766 3.558567 0.42553532 -0.5541634 0.18425532 -0.56451195 -0.88354033 1.0981536 -2.0251596 -1.2575086
30101913 1.4162312 -0.31881794 0.63618296 1.146567 1.6541698 0.8170665 -0.49788502 -0.3424219 0.33897015 1.1975113 2.6519902 1.1344962 -0.5755996 -1.7964344 0.24814631 0.82170457 0.5690204 0.15413284 -0.10743574 -0.4360298 0.12520349 0.92797226 0.94828236 -0.2312603 -2.2771769 -0.6615647 0.8712138 -2.158262 0.9967722 -1.3140867
36010120 0.23643127 -2.6925879 -1.3518178 -0.67383844 1.843913 1.055914 -0.78517187 -0.2919852 2.698484 1.4098563 1.4396043 0.4602453 0.4588329 -2.5855958 0.030193226 -2.3182535 1.7152389 1.6843555 1.3762438 -1.8305343 0.8712432 -0.74372596 1.1980873 -0.08965517 -0.62195015 0.32694745 1.3020526 1.5602194 -0.3424332 -0.43600473
36010090 -2.6809597 1.8449011 -4.920529 0.41869336 -0.12571482 2.6984055 -0.29954872 4.309643 2.7648995 0.8191644 1.7437592 -2.5740216 1.1932081 -0.01713334 0.7288575 -3.4391572 -2.2379475 2.5436027 -2.0502198 0.16701947 0.39748248 2.795515 -0.58048004 0.43048078 -3.5757487 0.38903308 0.09042432 2.8115516 2.2933114 3.2831633
41301323 3.7891054 -0.09578445 3.2808821 -1.4721456 -1.0524117 1.5525163 0.07796472 2.5897722 0.864341 1.2929959 0.12498678 2.1679308 -2.31626 -0.72915524 -0.60977936 -0.9454861 2.7083068 -3.672334 -0.65655434 1.2063452 0.67632246 1.4997628 0.18074071 -0.8936747 0.3474047 -0.5207593 0.28885219 -0.55369174 -1.8133464 1.7760576
10990011 2.1078274 3.1467109 0.12767152 -0.9861617 -0.25262946 -0.9301501 4.66233 -0.14507958 -4.5082283 1.9490525 -2.2718146 -2.1229186 -2.438446 3.140349 1.7773225 -0.06124092 -1.3571182 4.2053623 -1.7105236 2.708815 0.95909846 -0.7801779 -3.5483625 -0.28454822 -2.0094433 4.4881635 0.098577626 3.2451382 0.63160783 -1.0120989
31060021 -2.558147 -2.3197129 -1.3660583 -0.39886308 2.6679597 2.655413 -1.7028049 2.4892426 2.8920517 -0.8430139 2.0284917 -1.3594836 4.153655 -1.3633933 -0.21390635 0.34055087 -0.8557817 -0.20368159 0.69640106 -0.77078855 -1.361253 1.7804332 -0.65124243 -1.0438493 -0.8217691 0.22625855 3.4375079 0.5683577 2.7209728 1.4191289
32090072 -0.23801748 0.27412382 -1.3850061 -0.5537245 -1.2143192 -1.8222387 0.4166927 -0.578341 2.0399375 0.520278 0.35921213 -0.15999794 -0.13004139 1.8288807 -0.6396982 1.4377824 2.9210458 1.164578 -1.2737336 0.19062236 -0.95638853 1.9833678 0.7987248 1.4035932 -1.775375 -0.955141 -1.8036938 -0.2936284 0.5039934 0.23806855
40316270 2.1559453 -0.81054974 3.3780642 -0.72894675 -0.4520579 0.31801993 1.3360478 2.0244722 0.9531113 1.7255038 -3.1867492 1.2849234 -0.09393009 0.7226531 -1.7163146 -3.1313875 0.87495863 -1.631123 0.39868608 0.5214852 1.0223972 1.4427667 2.3803709 1.4906474 1.0608777 0.27369875 0.445783 -1.7828214 1.2254218 0.341389
10101543 2.4694045 0.057645686 3.9810848 2.7033753 -0.46606627 -2.3450036 3.1146245 -2.297041 -0.5400849 -0.21821404 -3.4633257 0.67989856 0.20959523 -0.7321585 -1.6731452 -2.297041 1.6904929 -1.9658923 1.1334883 3.1572225 -0.020843374 -1.2469603 -1.0185629 -2.3942585 -0.385372 0.774508 0.08445003 -0.21986338 -0.07004131 -2.2863085
20010010 1.0567241 -0.7106905 -1.7331024 -1.2190206 0.39233282 2.022391 -1.9115226 -1.0635198 -0.12395237 -0.31237477 0.017462224 -0.6669708 2.2482927 -0.74112284 1.3352818 1.2522113 0.69704086 3.5705743 0.33717787 1.7817384 0.8881541 -0.72735834 -1.9179331 -1.2404076 -1.1284441 -1.776891 -0.41052338 -1.9793757 -0.7509032 2.1616895
30913012 -1.4926655 1.2883531 0.093219325 2.5164218 -1.9010053 0.14761437 -1.8947835 2.2274992 -3.2945979 -1.043258 -0.63765204 -3.2760885 -0.30702657 3.0824342 0.3395502 0.2315635 -5.0797586 1.2229894 -2.550049 -2.5220191 0.786101 0.2572927 -4.7788916 -3.0174963 -3.857929 1.3255419 1.1858382 2.8957527 1.1463109 -0.8506824
21010048 1.3061594 -0.48375088 3.2620912 1.4179813 3.7744732 -0.13128388 -0.3649811 -0.36602303 1.1625208 2.263513 1.3669372 -0.9227494 2.2202876 0.7331001 -1.4157739 0.835496 0.08282365 0.17076549 -1.7227263 1.3132229 0.97682536 1.4066542 -0.3102196 0.13413522 -2.1575272 -0.9814325 1.7854172 -0.39803475 0.74458313 0.4106197
50010816 1.5387611 -1.388101 2.045764 -1.474332 -1.7092819 0.9974295 -2.8174086 1.0267924 1.3250827 0.8052421 3.365904 -0.26597002 1.1948748 -2.0855546 -0.8316031 -0.16929112 2.1592588 1.2356695 0.4049341 0.71929455 -1.3872182 -2.4482255 -0.5451475 -1.2186446 -2.1415968 1.1140189 -1.0312042 -1.1579623 -0.2654455 1.5450556
57010030 0.78126013 -0.19690299 -1.280398 3.4872541 -2.3038163 -0.72099453 3.6513898 1.8258092 2.7862444 -2.1565962 2.1479576 -3.613188 1.7833467 -0.14658983 2.0054517 -3.8898244 -2.1754708 -1.830167 3.5262527 1.348753 -0.8601384 -2.2431927 -3.805155 -3.7177982 0.7785173 0.80805814 0.80649644 2.300531 1.6077186 -0.18771674
41001010 0.39005548 1.7101846 1.4123571 -0.8944934 0.32450214 0.5061827 0.75733835 0.22473237 -0.21489796 -1.7430642 0.047491368 3.8158066 -0.65875036 -1.2151803 -1.1185406 -2.3917146 -0.094987616 -1.2648126 0.25807512 2.4735541 -1.4010025 0.4226753 -0.89206845 -0.49536952 1.0068709 1.0685343 1.993548 -2.4506187 0.7865485 0.016932258
33010030 1.4854 0.22119537 -1.8893641 -0.43622407 -0.41194528 1.7524489 -1.0480928 1.1862304 0.70742303 0.7558721 1.6630008 -0.13267726 1.1967962 0.7303373 -1.157905 0.8961097 -0.64378107 0.87055004 -0.14343143 0.9435517 -0.53465676 1.0002724 -0.600124 -0.013386792 0.61994773 0.5264648 -1.2650127 1.4838963 -0.8451803 -1.3485019
00010138 1.6271284 1.8825548 0.31280732 -0.92699796 0.004637472 2.4591265 1.1930925 -0.81422216 -0.8549021 -0.5695625 -2.706807 1.0605758 0.13127741 0.1364085 0.17222042 1.5233219 1.6844565 -1.6715995 0.9836839 -0.13874327 -0.14353047 1.2211657 0.06879 0.6278663 -1.0097914 -0.3710907 1.040405 0.108396016 -2.0705426 1.0605155
10101470 1.0273174 0.8882844 1.769323 3.4806087 -0.26163375 -1.8317809 2.3763342 -1.9505184 -0.35332894 -0.7200031 -2.1703396 -2.5886443 1.135225 0.79609925 -1.3488618 -1.3007246 -1.207708 -0.7208407 -0.81370026 0.84764487 -0.76288456 -1.5191706 -2.5483394 -2.8273976 -1.5767428 1.2192085 -0.61699784 1.5250127 -0.6049607 -3.3951342
34010041 0.20772982 1.574603 0.98736995 -0.42856383 2.6588256 1.9052957 -0.45937017 2.3807077 0.34537187 -1.6578966 4.5213046 3.111817 -0.7353383 -0.9672823 0.7802964 1.4422894 0.72783697 0.27557293 0.2775493 -2.3695898 -0.14690956 2.7921455 -1.348206 -0.37633532 1.2983257 1.521999 1.5728481 2.4603302 -1.6970694 -0.117575556
34010181 -0.98851407 4.218359 -0.17021285 -0.21528333 0.07321152 1.2362591 0.35358992 1.6106613 0.70924604 -0.40271744 2.409688 -3.871944 0.053494103 -2.126718 0.1394616 -0.65406877 -3.273236 0.44849598 1.5874499 1.61988 -2.264806 -0.39039376 -6.3428106 -1.8818367 -0.84827125 -1.4030135 1.1956081 3.124864 0.6304713 -0.7259869
40303080 2.1323843 -2.491606 4.2010365 0.36599115 -1.7048049 -0.7872849 -1.0378388 1.3594607 2.4815295 2.93767 -2.5681136 1.5070153 -0.009855977 -0.25404277 -0.1018745 -5.5694213 1.5925455 -0.78006095 0.27297083 1.2108264 2.15246 2.5228431 1.0290822 -0.24300098 0.6234051 0.6345202 0.51393926 -1.5552878 0.5351505 0.31959555
40901360 1.7990246 2.2418537 2.178144 -0.5176021 1.3238592 2.4382725 -0.015498032 1.9652283 1.9890364 1.022498 -1.5690465 2.4716096 0.8453248 -1.7974304 -1.217439 -2.2660356 0.5825874 -2.757031 0.79152393 1.6156298 -0.023277363 -1.7912323 0.02301951 0.31186646 1.5162129 -0.48003307 -0.77280897 -3.1665745 -0.31338444 -0.63872486
45080046 -1.1820558 0.8373931 0.020546455 0.23134844 -0.07637593 -2.1565945 1.5193427 -0.064740025 -1.4532081 1.5387483 -0.36309746 1.0739124 -3.3728497 2.145102 -1.6754291 2.322706 0.13240902 2.456233 0.8522615 2.1664932 0.14879873 4.012582 -0.16880687 0.32415307 -1.781013 -0.18878901 -0.57483643 2.00751 -0.8934341 -0.80350226
21010102 -2.0413795 -0.941927 -0.6193558 2.768673 1.3930434 0.14312679 -1.1358292 1.5963235 -0.39485174 2.0136173 2.192464 -1.1621864 1.0901433 -0.5210084 -2.306852 -2.5780566 -1.8579496 0.39191443 0.63950354 1.523225 -2.9777997 1.6361636 0.9404246 -0.7199128 -0.7658295 -0.6652699 1.5678775 -1.0525732 -0.46771473 -2.1052477
40901106 2.093023 1.9641473 0.6437732 -0.75659287 0.7039246 1.4255785 1.0198127 1.9963589 0.04039173 0.47802657 -3.2338753 1.9347292 0.6262311 -1.3891922 -0.883212 -1.66281 0.99903214 -1.3574966 -0.22264759 2.274614 0.92862195 -1.8133323 -0.09998816 0.31932533 0.4025731 0.39926258 -0.37450504 -2.9101233 0.7049618 -0.073865585
30101921 2.2939966 0.70711493 1.1635889 -0.17560588 -0.34998873 -0.2526391 0.090760544 0.40786147 -0.34216455 1.4184164 0.1695338 2.762713 0.11713529 -2.2908227 -1.3443403 0.27239794 0.4175981 -1.802114 -0.4866647 -1.1327956 0.9877622 1.432399 1.8310002 0.68743515 -2.0365436 -1.5843042 0.9357475 -1.1031617 0.11569184 -0.8210319
22010149 0.28402564 -0.2361725 -0.62612075 0.2687018 1.3763456 0.3548676 -0.55427164 -1.0437453 0.7351764 -0.062421314 0.55549026 0.049503166 0.91855913 -1.831021 -1.117167 -0.34847856 0.18822058 0.07082347 -0.1897529 -1.1154959 -2.3600032 0.08584611 -0.5208021 -1.0762738 0.3206451 -1.3465862 -0.8085073 -0.4096614 -1.9357277 -0.84798884
32080166 0.0983248 -0.7559743 2.0219898 0.06508301 0.5626963 0.89577425 -2.6812823 -0.38946614 1.6510192 2.1031582 1.4577035 -1.2786462 0.9321526 -1.5434916 -2.380565 0.76858324 1.141826 0.59381247 -0.7643052 -0.7995664 1.2553701 1.4188794 0.9705056 -0.65227765 -2.5068622 -1.6794162 0.36090654 -0.049353573 -0.47280633 -1.2803143
33010617 0.1948311 -0.99712634 -1.4022237 0.84780097 -2.4448135 -0.43812978 -1.2330439 0.4514499 2.4134448 0.71892744 0.53809947 0.30598474 0.36590096 1.0475427 -1.1923215 1.8222439 1.0714116 1.3130292 -2.1658962 -1.0938692 0.5007176 2.844179 1.2875402 0.9276549 -2.3119504 -1.0033277 -1.0758822 0.2257249 -1.2901142 -0.04522797
20010052 1.6683445 2.0911896 -0.36432266 -2.3435292 2.012461 1.9654014 -0.7700747 0.07431723 -0.45016396 -0.21409439 0.27192843 -1.8159956 2.4277146 -1.509815 1.6497009 -0.44795164 0.5465457 2.5199301 1.2918532 2.3543866 -0.36258855 -1.3847761 -2.330403 -1.202116 -1.1836259 -1.8738382 -0.53639525 0.2567783 -1.3720816 0.52357316
41001095 0.8446326 -0.10252287 -0.88151264 -0.7114853 -0.6999398 2.474375 0.73306674 1.8164349 0.14464001 -0.21673982 0.57167375 3.4538991 0.89343506 1.3857958 -0.6529454 -0.35653976 -3.165656 -1.9355769 1.1987792 2.3327932 0.33346623 2.0446224 -0.017380022 0.11480455 1.403163 0.21097583 1.9582243 -3.1927648 1.6301644 0.8568291
50010131 0.8403734 -1.3875283 1.6156124 -1.1691349 -2.2211199 0.30250037 -3.0054483 0.3543105 1.0969045 1.6652443 3.353206 0.09465284 1.5391495 -1.8083487 -1.0667462 -0.3505349 1.8298796 2.135287 0.25449604 1.7842264 -1.3206415 -2.6223352 -1.0035883 -2.3257983 -1.4911162 1.8697039 -1.2946969 -1.118942 -0.38519755 1.6019872
40201228 0.44814023 -0.8960073 -0.35365444 0.12184026 0.27697128 -1.5720258 1.1373824 -0.8564423 0.2116515 1.587596 0.45711556 -0.25419614 -0.34177867 -0.5198276 -2.38292 0.26881775 3.2381327 -0.46388158 2.2899458 0.11104023 -0.18749322 1.8934201 1.3813658 -1.9645432 0.71069187 2.1025476 -2.8914063 -1.6128998 -0.20774628 2.8880332
30732026 -1.2677281 -0.8396872 0.038484022 1.8716347 -0.93692106 -1.1263187 3.057382 -2.1218276 -1.8038403 -4.3269215 -0.5643718 0.73720306 -1.5294727 -1.145122 3.5220149 0.45346382 -0.8809451 4.941603 1.5270996 -5.030997 2.028783 0.3260798 1.6394732 -3.6690214 -0.9062942 -0.06966521 4.0101514 4.0102773 0.38922262 -1.3588463
17010039 1.3536421 1.9360402 -0.6562596 0.0057151336 0.47945148 -1.0483723 3.5516417 2.2774599 -3.041196 -1.8255129 1.7605428 -0.87104154 0.91895473 1.1507789 0.81988347 -1.8552762 -3.565679 2.295904 -0.11756499 3.740297 0.5587559 -1.2126846 -5.2368183 -1.792783 -1.5416124 2.6186311 1.2011306 1.4034396 -0.3609919 1.8750821
42030021 -0.43057528 -0.55202883 -0.45733875 0.94147027 0.30114913 -0.69384015 -0.14970058 -0.13273066 -1.1791165 0.8974952 2.2441466 -0.22693329 0.9197697 -1.4772832 -1.4248892 1.8674928 0.8713731 0.3793804 -0.41646245 -0.9434266 -1.352369 1.3397197 0.83996403 -0.62894297 -1.0947973 -2.5134354 -0.032959282 0.98574245 1.3633775 -1.3859497
20104022 2.4036252 1.5139687 4.896094 3.6761935 1.1105007 -0.20317864 -0.6430943 2.7998984 -0.5549063 0.008140461 -4.463391 2.8825052 -1.7101439 2.2351005 -0.8212222 -1.1206445 1.035045 -1.7061334 0.6209909 0.6857222 -2.3984866 1.6991827 3.9143333 -1.0966637 -0.18222347 -0.13082802 3.2599587 0.14404848 1.0120399 0.85889375
17010012 0.593844 0.4042701 0.8684065 1.0537968 -0.011375473 -0.23226666 3.8618867 2.7106974 -3.9448512 1.7715523 -1.3320322 -3.9761515 0.49434796 4.3757215 2.0242448 -1.4054297 -3.7563338 1.069759 -2.0304644 3.1596305 -0.56490266 1.5243005 -1.9374663 -3.204857 -3.6778662 1.5158741 0.6618653 4.096465 0.3712102 2.5499818
30911079 1.5171452 2.4123955 1.1370147 0.86807835 -0.9744561 4.259019 -1.6463718 2.053098 0.15485562 -1.6306963 0.55600876 -0.26122084 1.2698488 -2.9263067 1.0296373 -1.8294414 -2.1268625 1.4743482 3.0918183 0.079554565 -0.55261916 -3.0594091 -2.6258118 0.928121 -1.7688118 -1.2188145 -0.42006823 -0.3955073 -1.3494408 -2.8586962
45990000 -0.7024709 1.8159288 -0.64470327 -2.09166 -1.6360061 -1.0304003 5.6260676 0.38419002 -1.9152936 0.97133446 0.74546653 -0.29604286 -2.868609 4.6971884 0.38297194 1.4801431 -2.5700126 3.838235 0.78947204 3.273381 1.9840178 1.2187697 -1.7869983 0.6273541 -1.8745924 2.4147682 -0.875974 4.127699 -0.17351829 -0.8466705
40103315 0.12885238 -0.81590134 0.5559532 -1.5770959 2.7749252 2.3794281 -0.28414372 0.63975036 2.3875132 -0.6120979 1.6626115 3.423878 0.12219273 -0.51621616 -0.19166335 0.20525266 2.402208 -0.34376645 2.1342885 -1.6426071 -0.44721916 -0.48420858 0.13934442 1.2151477 0.5356241 1.6446204 0.7220391 0.5751969 -0.88174015 0.33508518
20010206 1.6411908 1.0245353 0.27267462 -2.2624238 -1.2078348 -0.34723902 2.5462534 -1.2279421 -0.82428557 0.46153945 0.62351084 -2.9351883 -2.423753 3.8411632 0.08574954 1.1576416 0.87372994 2.82373 -0.9087859 -0.13211924 2.0344746 0.7625759 -1.4279511 -0.07111056 -0.87165827 -0.03168463 -0.6064169 2.9169683 -1.5330477 0.77965194
20104065 1.7521214 -0.6122417 1.7993771 -0.64802504 0.53701425 -0.15649599 1.0739069 -1.4710908 0.9460669 0.7673741 -0.5638856 0.9719541 0.19939925 -1.6933932 -0.83025557 -0.02704925 2.694126 -0.2929354 1.6600305 0.24719821 -0.95931727 1.9364811 -0.49261978 -0.4740782 1.2675469 2.0381682 -1.1737379 -1.8199282 0.17795806 1.8590943
24010014 0.9540337 -0.45857903 1.0066698 3.080858 0.4939865 -0.6661251 -2.2603376 -1.2797995 0.92897063 -0.096862905 -0.39090016 -1.248031 1.0364683 -1.9938033 -1.4299568 1.2007488 -0.11561986 2.5164971 -2.3384624 -1.5867503 -0.26383623 1.5941918 -0.16469012 -1.6680431 -2.0572035 0.18644363 1.0452017 -1.1428815 -1.4159316 -0.308202
50060015 1.6010108 -0.5865291 1.6168059 -1.576675 -0.10558463 1.8247147 -2.167799 -0.38757166 0.6502073 0.45490086 3.2344477 -0.52695036 1.3987529 -2.8196514 -2.1486857 -0.3411843 -1.3326062 1.623593 -0.09159091 -1.167424 -1.5294322 -1.1732464 0.19341658 -1.0164369 -1.1648735 0.5808922 0.51862097 -1.2085391 0.21486907 -0.2910936
22010050 0.38753748 1.1206884 -0.6084129 -0.17318024 0.7280117 0.635018 0.71118474 -1.4455684 -1.4830077 -2.7222185 -1.6928744 -0.58198476 0.95969695 -1.1125399 2.1941671 -2.5221357 2.8387792 0.0991704 -1.4432094 0.7334363 -2.1400683 -0.73834354 -2.3786683 -2.346592 -1.7498223 0.267515 -0.20048085 1.0174305 -0.7094392 0.24199662
20102038 2.3574224 1.87925 1.2155788 -0.3570105 0.64184433 1.9519168 1.3394077 1.1647921 0.5538947 0.6244302 -1.5517163 1.3560663 0.3997088 -2.006994 -0.6042899 -0.042862788 1.150901 -1.6079159 1.6804235 1.2501034 0.8537706 -0.7105661 -0.54505557 1.0691185 0.13033779 -1.1922773 0.4713807 -1.2974746 -2.6779993 0.27569064
00010081 0.05058747 1.8953534 -1.3387234 1.5886612 0.3119228 1.5623418 2.3273585 2.365167 -2.1505425 -1.3301507 -0.26369187 1.9234377 0.7783424 -0.7436641 3.6547554 1.0635805 -2.4496696 1.6039929 -0.8014 1.6743988 1.3339453 -0.98828226 -3.7872796 -1.569901 -0.7956248 2.1550832 2.5136192 1.1419823 -1.6067796 0.90518486
41301250 4.33356 0.69788295 3.4158404 -0.9450676 -2.1034143 0.89216805 1.0563096 1.751651 0.17887305 1.3630643 -1.4693066 0.88957494 -2.8805828 -0.3458189 -1.0557281 -0.9544921 2.9505017 -3.3661287 -1.0367575 1.9989996 0.995804 0.15655513 -0.04996312 -0.84477216 0.04184378 -0.28893122 0.6163575 -1.1113286 -0.6087974 1.9492518
40901238 1.7989694 2.6055884 2.7977161 -1.7846395 -2.6014855 -0.42386988 4.3176923 0.2598498 -0.4751261 -1.1094207 -4.198875 1.0053889 -2.6429126 3.053022 -2.3620584 -0.018957427 2.7352538 1.4359095 -0.053619675 2.5924826 5.476106 -0.5295606 0.13869035 1.0095277 0.68639296 -0.21113776 1.4741685 0.009227901 -0.35565776 2.2420805
34010114 -1.6616406 2.3230543 -0.39749333 2.2631292 1.8761555 -0.99183816 -0.009074161 2.8879607 0.6732646 -0.13454698 0.64724076 -1.9802655 2.1495686 -2.4176846 -0.22739722 1.3382299 -1.9819877 -0.01012985 -1.0457566 -2.0728824 -0.76187557 3.0689256 -2.708037 -2.267795 0.74849164 2.6794562 2.4580607 0.093403764 -0.82344395 0.31644726
17010098 -1.1919936 -0.33087742 0.16007355 0.055131517 -0.17234218 3.0432045 -1.1259096 -1.7694055 -0.5971736 1.5328395 -1.9319507 0.54629594 1.2174133 -0.6559494 -0.5399499 1.2701962 3.3215115 1.9455265 0.58622426 -2.7506218 0.33714974 0.3357033 1.3793324 1.8548782 -2.0333676 -1.2904974 -0.10502959 -0.46278468 -2.0250227 1.5745258
36010162 -1.0606016 -2.182675 0.10934161 1.5549098 0.5192701 0.03026264 0.6059332 -0.66102207 2.886349 0.7346294 1.762474 -0.12849897 0.35755938 -2.1939354 0.0028469448 -0.8038402 0.796287 1.9143249 0.81895787 -0.65369797 0.5946478 -0.7735367 2.0351167 -1.2992283 -0.80071574 -0.07772246 0.97733015 1.9641743 -0.53062654 -0.67735296
25060139 1.0873477 -4.0941353 0.68838495 -0.95916414 -0.71962225 0.7264757 0.36713377 -0.47018543 2.1553133 0.13002427 1.5181879 3.0719306 -1.4014012 -2.539177 -1.0163815 -0.75511825 1.5217577 0.8301272 0.790835 -1.161223 0.37758294 1.1510333 -0.31523854 -0.23487712 2.237369 -2.944056 2.2631967 2.2207565 -2.9486303 0.005693336
31010032 0.76396126 1.4184085 -0.45060694 1.7426705 -0.038910657 2.0373793 -4.2207584 0.6187237 2.8848674 -2.2990224 0.3780147 -2.0812514 1.6953264 -1.1733017 -1.1244396 -1.0724033 -0.05245838 0.09070848 6.1420774 -0.3099698 -2.0630896 -0.2937807 -0.63899565 -0.12481498 0.5339307 -3.5206232 1.1607425 -1.3976369 -0.91447616 -4.980879
16000013 0.6227913 -1.030662 -0.22059785 1.6205932 -0.55122054 2.0763903 -1.1389357 1.67059 -0.11934196 -0.8416734 0.64151454 0.20263347 0.19457766 -1.0974183 -1.1099005 -0.42704794 -1.2271771 0.81511045 -2.1010802 -0.7388412 -1.1521025 2.1264405 -0.75529873 -0.3775507 -2.165875 1.4950796 -1.1500415 1.4295976 -0.0046437485 -0.79873914
41001125 0.15581506 0.015516498 1.0043906 -1.6033643 0.98887664 2.1271071 1.1428442 0.13540521 0.49856088 -0.358335 3.089478 4.7986746 0.73209953 -0.30330402 -1.1076686 -0.5959826 -0.5314057 0.37660632 0.84360826 0.30548555 -0.7142309 -0.29030538 1.1824086 1.4727379 2.9639199 0.1246633 2.4690456 -3.242586 0.837311 -0.21249817
30101522 -1.0670912 -0.4242068 0.17007215 2.5166848 -0.64502954 -0.20221896 -0.5786898 1.3658563 0.6571118 1.0631491 2.7875907 0.39003813 -1.1810123 -2.8085938 1.5273473 0.5063201 -1.5336417 0.047665052 -0.46842334 -1.3506663 1.3236 -0.6139108 -0.62063354 -2.600348 -2.4399288 0.060827035 0.6831388 -0.98064846 1.2097071 -2.0022821
39030156 1.9484158 3.1031578 2.340658 1.2233163 0.3909575 2.6273198 2.5351927 3.9014366 -3.2362745 -1.8955064 2.0540726 -2.9061317 2.11656 -0.7251936 1.2888473 -2.286327 -1.7019035 0.7924224 -0.7619581 2.9318638 1.010401 -0.034122396 -5.092194 -0.34878573 -0.60350424 0.42903683 0.5111594 1.4339701 1.7128245 -0.9366103
20010508 -0.5282497 3.2612977 0.36030975 -0.023921192 -1.9620148 -0.046596274 -0.00037778864 1.4090028 -1.3641772 -0.4173698 0.89154863 -3.4536657 0.10975932 -0.8698517 0.2091689 -1.135089 -4.7261734 3.137509 -0.40718243 -1.8401192 1.4539809 -2.1565928 -3.4838216 -2.2360618 -3.3010128 1.3958647 -0.47081262 4.0757823 -1.090877 -2.244691
30101107 4.221705 0.27780983 3.2608974 0.262067 -0.48488787 -1.0676006 0.5741475 -0.8459239 -0.25440797 2.0344434 -0.4525352 2.1731536 -0.2640944 -1.3019667 0.06624664 0.0040662643 -0.03743115 -0.6014116 1.2898278 1.1595228 -0.115778364 1.4243246 3.3363385 -1.463688 -2.2208729 -2.870275 -1.9696707 1.0780858 0.85919785 -0.47216323
25020137 1.0773647 -0.07536385 -0.47912955 0.7392985 2.7883122 1.5867307 0.24305303 -0.8049341 -1.450774 -3.7125924 -0.4087957 1.0085241 0.23330168 0.87038386 0.18124288 -0.23728606 0.6702542 1.28535 -0.3185243 1.48495 -3.9016383 -2.2238371 -0.737184 -1.1624767 -2.577977 2.9427557 1.9458737 -0.26743048 0.99514645 -3.017388
40103528 1.1717216 0.6272929 -0.15898912 1.1510643 2.2078662 0.3288274 -0.28760958 -0.61007005 1.4142427 1.243384 -0.6154332 0.35056362 0.989157 -2.1739557 -0.76443595 -0.7850707 1.5155708 -0.6232909 0.67685366 0.09748362 -2.0576441 0.1986635 -0.27270404 -0.48158374 1.3408654 -0.517356 0.22008067 -0.8762353 -1.0263408 0.3671297
34010092 0.11926183 1.0919449 0.44401234 -0.053811964 -0.002595252 -0.6338477 -0.5732681 -0.23007417 0.04743546 -0.70891196 0.4850948 0.5480749 0.54648954 -1.4519362 0.06377303 -0.35241756 1.6168948 0.31651327 -1.4425355 -1.207199 -3.2453177 1.0123186 -2.1869612 -0.61584616 0.92951846 2.194103 0.24500185 0.0030764025 -1.2664733 -0.45681676
32050054 -0.087818645 0.0967942 -0.99437094 0.3534665 0.2547759 1.2594959 -1.0909808 0.48535004 -1.8378117 0.21472548 -0.28214857 -1.426406 1.5671067 -1.7467521 -1.7930107 1.5253595 -1.4586372 3.1541839 0.82268584 0.9695802 -0.103272416 0.2705539 -1.4426371 -1.5286899 0.40184966 -0.14977226 -0.2524308 0.056116764 -0.28108028 -0.44363162
42020107 1.4244944 1.5034472 0.43789122 0.7157083 0.98109317 0.31069317 -0.93658906 -2.7488966 -1.7980231 -0.35422856 3.4600875 2.0598602 0.46547994 0.6772817 -1.5736023 1.2977474 0.6650068 -0.9797106 -0.6292269 1.2216219 -2.602519 -1.9426967 1.6510767 -2.4839723 -1.2237967 -2.94834 0.10118644 0.15572704 1.5643176 -1.6080699
51010380 0.5921883 -0.52314234 -0.033942327 2.4630473 0.535812 -0.85661167 -0.5977969 -1.5050067 0.04189331 -0.49646062 -0.5081236 -0.71792126 0.5755001 -1.4496924 -0.68604887 0.76135564 0.66573185 2.1903777 -2.1965451 -1.7832578 -2.6443465 1.093469 -0.6763608 -1.049935 0.18450245 0.16964586 0.71725535 -0.8487249 -1.8106295 -0.8121492
23020091 0.15060677 -0.7392945 0.5551254 2.7894568 1.0949074 2.965177 -2.0721154 -0.038186863 0.7620406 1.0247018 3.4598315 0.10055477 0.40265727 0.17181706 -2.0735607 -1.9524227 -2.4674652 0.8968915 -0.10334398 0.110984616 -2.2209496 1.5284435 1.5581546 -0.46993342 -3.3670382 0.23812862 -0.8454546 -1.2633952 0.4665221 0.49351326
51020017 0.9516164 -0.5025096 1.6110404 -1.1441029 1.0976776 0.0518244 -1.5854372 -3.1574247 -0.3967225 1.4297798 0.5889419 0.97245115 0.84560496 -1.3398757 -0.23870862 -0.3650608 1.5990361 2.6978722 -0.7953044 -0.97625995 -0.9993021 -0.07115162 0.5423714 -1.3568268 0.16753654 1.4850637 -1.480909 -0.9815905 -0.05851382 -1.1316099
21010218 -4.4250793 -1.7530438 0.23469487 1.976936 3.503136 0.4982569 -0.6155168 4.5452886 -0.082267866 -0.19654004 0.35736084 -2.514634 3.8988638 -0.9365909 -0.92488736 1.1143574 -2.1546412 -0.3237371 -0.17546129 -0.103217974 -0.6473843 3.7852082 -2.5619802 -1.0514135 -2.156494 -0.41830793 1.7411518 -1.2401717 4.2038383 -0.013508129
31004180 2.8920052 0.7964193 1.884599 -0.41173896 1.6733851 -0.13951749 -0.13003409 -1.8391312 1.9584296 -1.00795 2.4706893 1.2472199 -0.98324704 2.3701158 0.7573996 -2.4301035 -0.77546465 0.8200319 0.81563556 0.00050853903 -1.5537125 -0.28720084 2.5851753 -1.3482852 -0.91115236 -1.062681 0.0018739 -2.567008 0.069854185 0.49876752
25100017 -0.5457133 -2.7247164 -0.04737951 0.7818713 -1.2680064 3.4614708 -2.908795 -1.1602387 3.0984232 -1.287151 0.6754066 0.68123657 0.60937095 2.197623 -3.6542032 -0.21862553 -0.6128626 -0.7114801 -1.0123073 -1.6668459 -1.7053803 -0.07370099 -0.4969401 0.6495602 -0.57548225 -0.8230582 2.2840936 0.50110024 -0.88143766 -0.8406492
28060601 1.6781992 0.65917224 0.3241078 1.9520644 -1.3817832 0.49543294 -1.8147404 -1.8821379 -0.5160788 0.72651494 -3.7111619 2.2742536 1.54114 -0.5389245 -1.9693199 0.47648066 1.4569255 1.0364273 -0.7342631 0.8284136 -1.6424005 -0.111425444 1.6888163 -0.8018388 -0.24992302 0.07171111 0.69181526 0.83697796 1.2270162 2.8396232
19010117 1.2373799 -0.6548822 1.7159626 2.3450315 -0.53091466 1.3117805 -0.40085173 -2.630909 -0.59438485 2.2495162 -0.8897286 -0.95052767 1.0623811 -1.2647954 -1.2208493 0.053674784 1.6554738 1.9664968 -0.9747562 0.18760337 -1.5291816 1.0305183 0.85343945 -0.64694303 0.24299225 -1.1885948 -0.03827608 2.4830418 2.7414863 1.5271114
40901483 0.12368341 2.2089026 0.71172965 -1.6234905 0.37093592 2.256563 1.2811911 1.6417552 0.7120742 0.30967888 -0.4828951 1.9683788 0.36720008 -0.43732628 0.20717715 1.6185288 1.1657178 -3.8795342 2.7511656 0.6932958 0.51394427 -1.2727033 -0.66821814 0.3078598 -0.96697783 -1.0071977 2.6522813 -0.27561527 -3.1501174 0.08241906
16010205 3.7950058 -1.8524511 0.38749132 3.4321823 2.9749036 2.5551367 -1.336677 0.16648622 1.2251918 0.19077238 2.0576556 -1.2139297 -2.018691 -0.2220796 -1.0503333 -0.61592674 2.9521747 0.86871797 -0.67388195 -2.7289557 0.37817726 -0.08402962 -0.2845449 0.9290509 -2.5281272 -1.9109885 1.3574954 3.7250447 0.44278708 0.032087523
31303170 -1.8474702 0.19136983 -0.98482394 0.5586611 -1.1507276 -0.34737572 -1.6679932 0.11150988 2.432522 1.7411915 0.6137518 0.5617353 -0.22942215 0.9671096 -1.2813697 0.27253073 1.4352561 0.5024968 -1.3664569 0.40477902 0.7439272 1.178512 1.3694916 0.63771737 -2.8580065 -1.5769202 0.7387695 -1.1854653 -0.85895455 -0.5694047
32050038 0.08382211 -0.21821915 -0.25573257 1.8999797 0.6252438 1.343836 -0.733343 0.49859047 -2.4354284 -0.22007427 -0.11883415 -1.5747195 2.2056684 -1.1886352 -1.0272874 0.20114556 -1.8159832 4.147362 -0.013771896 2.3281128 1.0195973 -0.46397594 -3.6149619 -2.0388362 1.1627477 0.2793159 0.48821092 0.051738612 -1.1558777 -0.18920927
50010158 1.0247177 -0.56388795 1.8303236 -3.1087835 -1.8024131 1.4627957 -0.27732453 -1.6596429 0.054857653 1.9619164 1.993642 0.011262855 1.6367126 -1.7447884 -1.4014729 -0.71615064 2.0807993 1.8472129 0.12830019 1.28565 -0.18049173 -2.4038365 1.275566 -1.2539598 0.059105385 2.0231037 -0.2900258 -3.142668 0.44603273 1.9335433
51010020 1.1220044 0.8263642 3.4350157 -0.34265098 1.7559235 -0.089967534 0.7688532 -1.9358934 -1.9630381 -1.9872675 -0.3240023 -0.9789183 -1.5785952 0.07362581 -0.5324906 -3.0688477 3.1777344 2.365567 -3.7236116 0.034868978 -2.4801552 -0.79916394 -0.4201189 -0.8897515 -0.58824307 -1.9197671 0.46505362 -1.7846248 -3.3468614 0.7188587
31009166 1.8187556 -1.366293 -1.5920358 0.23777008 -0.27265674 1.6369417 -0.2898103 -0.3212311 0.23739026 1.2562034 0.35565865 0.37817824 0.6505397 0.4778553 1.6800624 0.012405844 0.7993043 0.65003693 -0.1503045 -0.43670392 2.1216514 2.0829613 0.5787116 -0.10511132 -0.045948874 -0.20668067 -0.70683455 -2.654038 0.032263532 -0.8184245
40901220 2.5913687 -1.6683917 0.95640653 -0.7924055 1.1047018 -1.4367105 1.6900929 1.9661272 4.825873 2.6486416 0.3811298 3.750492 -0.6540869 -0.46355024 -2.5103936 -0.35243607 2.384927 -1.1175143 3.3590376 1.1333058 1.74992 -2.2272263 0.60877204 1.1468658 3.2288132 0.5510177 0.85346115 0.11807847 -0.63158804 0.17009082
28030109 2.3404264 2.486764 1.324936 0.19322151 0.22283468 0.8975857 -1.0766313 0.9907817 -0.106389366 1.438111 -2.9709206 2.798119 0.79056585 -0.06099302 -0.7752398 -0.43560216 1.2017189 -1.5839794 0.14007977 2.719843 0.7726414 -0.67966557 1.0530488 -1.5292856 0.80291694 -0.74564683 -1.4328885 -1.4058869 1.4061022 1.3875302
31303269 -0.08821445 1.4742776 -0.17132501 -1.1679804 -1.105508 0.43957418 0.66899437 -2.039366 -0.3049931 2.0899642 -0.46741164 0.76903534 -0.91158766 1.3345201 0.3369692 0.6871879 3.6533165 -0.4654297 -0.7797675 0.62031716 2.2159672 0.17079245 -0.3448482 0.71312904 -1.7186581 0.5361823 1.1016427 -1.226526 -0.5918828 0.5061276
25060040 2.0486505 -2.1868477 1.4100728 -2.3051476 0.53128403 2.5290186 -0.69209373 -2.8876622 3.2425816 -0.34479263 0.68613327 1.6809876 0.87094134 -0.26216957 -1.6751192 -1.2251567 2.0720723 0.8872208 2.5431948 -2.1284175 0.92624456 1.7427347 -0.5133688 0.072850764 3.9939954 -0.7265604 2.5050514 4.247701 -0.90284795 2.1697676
50010239 1.283635 -1.4063977 1.5065249 -2.6432955 -1.2579166 -0.29899886 -1.5003016 -1.09786 0.3415479 2.6228561 2.285871 -0.49480042 1.9078735 -1.4394568 -1.5983157 -0.3588798 2.5921242 2.0014074 0.9297247 1.2291788 0.051198166 -1.8401985 1.3715106 -2.1272326 0.16374545 1.9944594 -1.1962683 -1.5411495 -0.12748273 1.7955201
36010030 -0.4300078 1.1546267 -2.1371882 2.0413687 2.944779 1.6093539 -0.92199785 2.846116 3.0824153 -1.293164 2.2853367 -0.25767517 0.6842476 -2.6677127 -1.6637616 -1.5566779 3.0848844 2.3792775 0.78808564 -2.1065176 1.9584472 0.20220084 -1.8491788 0.922125 -0.023770364 3.7546492 -0.42348203 2.7437267 2.713826 1.0734203
40901262 2.2946155 1.5083086 1.6499654 -2.3712811 -1.3198583 -0.26435924 3.578051 0.79108155 0.11692299 0.18106538 -5.084805 2.1792445 -2.66444 2.382368 -1.4268553 2.015183 2.2587435 1.127406 0.15060891 2.5186315 5.1395364 0.102977276 1.3206862 0.5688479 0.058184545 -1.6693044 0.6482738 1.4681671 -1.9418492 1.7994341
30713137 1.990416 -3.550441 0.744453 -0.42502022 1.2964765 -1.4648565 0.33512613 1.2459271 4.4001794 1.4719187 1.7234824 2.6753464 -1.2390486 -1.396279 -1.6712548 0.15964815 1.689088 -0.34831113 3.9652057 -0.1797428 1.6530156 -2.052852 0.94383186 -0.58345026 0.7123374 -0.36140388 2.1287172 0.8540217 -0.18951172 0.77626574
20010184 1.1134651 2.9606183 0.21684283 -2.1251245 1.471985 1.3849912 -0.4789215 -2.2759635 2.0725198 0.40671372 2.0372899 1.4776975 1.7019824 -2.84946 1.795339 -1.8535272 -2.0791228 1.3401463 1.157628 2.7232146 0.72229594 -2.6854017 -2.5084932 -2.4997215 -3.482756 -0.1044071 -1.6199249 0.94571203 -0.0024589822 -0.54852164
31009115 1.8009617 -1.1992899 -1.1118922 -0.20968242 -0.6975448 1.4309539 -1.0156132 0.45628408 -0.08830873 0.54861814 0.12484934 -0.21702123 1.2396219 -0.12901837 1.5438989 -0.26860142 0.70497316 0.71293044 0.15898831 -0.8036317 1.1857296 0.92897725 0.4996147 -0.74350995 0.778179 0.36832836 -0.69099164 -2.5815382 -0.12128297 -1.3351703
22010017 0.7201293 1.2206212 0.6154626 -0.3533892 1.5885824 0.7351898 0.68798774 -0.2095903 -1.1553977 -1.4140253 -0.038269155 -0.93737966 1.1952044 -1.5738019 1.3241088 -2.2171323 2.1769953 0.48742038 -0.8893187 1.5417526 -1.6016861 0.04984022 -1.7650881 -1.3045933 -0.8817457 -0.64706326 -0.54122674 0.71066946 -1.0261067 -0.28002885
30731097 -2.3738194 -3.6570475 3.2804809 2.0816307 0.46379492 0.35255396 -1.0729532 -0.4637716 3.11736 0.47212568 1.8235602 1.9587045 -4.6451187 -2.0602326 0.34592238 -0.12685968 2.1241193 3.1578293 -0.96244484 -2.3369696 0.4625246 -1.3434988 2.631589 -1.726056 0.0406323 -1.93761 2.3715608 -0.5011203 2.9912634 -4.3348427
41101170 -1.6939311 0.3298423 -2.2522566 -1.6413734 0.003835629 2.5434706 1.4856453 3.755726 2.015279 -1.189973 -1.5484959 1.374407 3.0135128 3.1517239 -0.10908714 -2.6575446 -3.861079 -3.2854552 -0.42107162 2.99309 -2.3932378 1.9581819 1.1153543 -0.65961915 -0.8908401 -0.73628604 -0.22460155 0.8291033 0.62868166 -0.23755062
50070207 1.4388208 -1.5591466 2.1455436 -0.38867512 -1.7021424 0.6562563 -2.4787185 4.0287547 1.8991976 -1.283129 4.4105134 0.6050391 1.645926 -0.8001748 0.1658434 0.63848674 0.71974134 1.3437799 -0.77602607 1.5121989 -1.4002925 -2.9419167 -1.0507103 -1.5700804 -1.5318223 -0.30725494 1.1890275 -0.6576058 0.79543465 0.5837107
26020025 -0.8132629 -0.70112634 -1.5169088 -0.39062828 -0.1856221 -1.515338 1.7386006 0.57544065 -0.6910718 -2.415546 -5.565734 -1.6399912 -0.79975456 1.8673358 -1.6199539 0.2712206 3.4555736 1.4950047 -2.2447832 1.5186449 -2.6500955 0.90366745 -0.570963 0.34867683 -1.5113252 0.13529302 -0.87525594 1.4786673 0.37454978 -1.4367536
50010220 1.0143492 -1.1444678 1.591928 -2.3138642 -2.1121144 0.9033526 -0.69974464 -0.77522683 0.5661205 1.0212882 1.9671618 -1.7635111 2.2447069 -1.685844 -2.261197 -0.16204801 1.247592 1.8642247 0.9358035 0.70944005 -1.1095448 -2.4723868 -0.85886204 0.22545452 -1.3477772 1.8746829 -0.4251688 -1.2863109 0.14046322 1.0577788
23020075 0.23795043 -0.29796362 0.5798626 2.7627373 2.7163632 2.5944972 -1.8119563 -1.4513956 -0.27673125 1.8437307 2.197881 0.45587125 -0.031314053 -0.11029443 -1.9239736 -0.76896966 -1.6713778 1.4938363 1.155891 0.3820167 -1.4859955 1.2407452 1.7148036 -1.1003076 -1.9556382 0.20307435 -0.63562435 -1.2450435 -0.27824977 -0.15212333
31601014 2.313023 -1.0949534 1.2457368 2.1987376 1.9254582 3.65699 -0.40396327 0.082442865 0.35103515 0.6126868 -0.25257817 3.0041628 -1.8305792 0.082380764 -1.3988466 -1.3275933 3.5381896 -1.0151794 1.8650203 2.673536 0.8927954 -0.75473505 0.94709206 0.5885886 -0.43002728 0.08505848 0.84865946 0.7302097 2.2862806 -1.1992928
41001079 -0.93138146 -0.7510809 0.7549472 -1.3286432 0.76226276 2.2559419 0.5623644 2.1345022 0.13329096 -1.1522075 -0.50137794 2.6787493 2.2014735 -0.8098962 -0.96770674 -0.18131664 -3.162762 -0.97135633 1.0361711 1.8931929 -1.3237247 1.1916478 -0.8300661 -0.8983675 2.0619547 0.3880001 3.0421164 -4.146439 1.6383932 1.5095853
28060849 -0.35587057 0.4606045 -1.9742094 -0.27082032 0.0299369 -0.35270306 -0.60475093 1.702924 0.90442824 0.6992528 -0.2549014 -0.86016047 1.4726421 -1.3249985 -1.8292376 1.3611394 -1.646957 1.8065826 0.19425552 -1.281234 -2.727325 -1.0521415 -0.07492356 -0.3196966 -0.17756443 1.4566376 0.57584536 0.5742022 -0.7423847 1.1878014
28061624 2.3555067 0.01243865 -1.8540047 -0.40033683 0.452568 2.6967351 -3.4182775 1.2882485 0.8913427 -0.86657166 -0.097180285 0.49645007 2.3072314 -1.4689296 -0.8605739 0.28389594 -1.0491425 0.25198376 -0.10202091 -0.8711317 0.52190804 -2.0697527 0.5728517 -1.9516345 -2.0390496 -0.113632165 -0.3476674 -1.8192612 1.6018742 2.0592878
31206220 2.3748136 -2.8308184 0.017035522 1.777589 -2.6024172 0.72794944 0.58626807 -1.5596853 -1.3841251 -0.59127426 -1.6612942 0.99309397 -0.022898253 -0.31483492 2.5169804 -0.27392477 1.6873385 -0.33168504 0.30370075 -0.35800782 -0.77041346 1.7474228 -0.10523746 -1.2835945 0.5041831 -0.8070468 -0.322614 -2.6508083 1.1907777 -0.42536393
28050347 -0.06579886 1.2939452 -1.8127987 0.28590304 -1.9831365 -1.3205842 -0.14261028 -0.997992 0.6406819 2.3247218 -1.0351397 2.2718663 -2.1158366 1.8995352 -1.3357722 3.4834735 0.27479613 1.0935601 0.18022092 1.3374859 1.8366914 2.1658301 0.98824096 -0.9036488 -1.028652 -0.4143557 0.22663978 1.2402879 -1.0632224 0.75322884
36010189 -0.01888271 1.9264568 -0.5865649 -0.11161779 0.143918 -0.80885416 -1.2915857 0.2676682 2.3163707 -0.17677549 0.8053013 -0.59631765 -0.52039284 -2.8742688 -0.9857144 -2.635379 1.379995 0.87904024 -0.044036396 0.44001913 -0.2513062 -0.16728851 -5.1668005 0.32838458 -2.6169286 0.45911255 -1.9309754 2.9197953 0.40820253 -1.4451536
80040870 0.32672685 3.4091623 -0.63565373 1.6631422 -1.7351791 1.543149 1.1517758 1.9341369 -0.99153835 -2.2884288 1.0298556 -1.4771816 -1.5271733 -1.2276644 -0.3020046 -2.2595205 -3.6267788 1.2403554 1.5064007 0.8997657 -1.1551241 -1.7605854 -4.4363036 -1.984705 -0.9812511 1.7433177 -0.7835362 3.2275696 -0.7109213 -0.8337755
41501993 1.590974 -1.6206739 -0.32056534 0.3113912 0.3836557 0.8723684 -0.05857352 1.1192163 -0.78221625 0.092874944 -0.17687008 1.9923222 -0.88246906 0.30243364 1.8609203 -0.6609597 0.27097633 -1.8216839 -2.6175263 0.060774412 -1.5075535 1.0885277 -1.6537391 -1.0079446 -1.4273438 1.5804322 -0.7715083 -2.8741188 1.22532 -0.025251495
00020028 0.48741037 0.6969689 -1.5106932 1.8409659 -1.2326193 -0.6275124 2.592623 3.3019238 -0.17467476 -1.6317998 -0.81976384 -0.17256694 1.7948322 -1.4829128 2.4033976 -0.6961534 -2.9065583 -0.70081747 -0.36804733 0.022730617 0.6635493 -1.1403747 -5.1995816 -1.9495527 -2.715354 3.1412897 0.048970096 2.4760869 -0.7747933 1.0849104
32130384 -0.023697479 -0.87452585 -0.5611595 -0.43844682 2.7963295 -0.13420625 -1.1731603 0.48728326 0.93511105 0.7214159 1.327023 -1.9669044 1.9243317 1.1105431 0.48624986 1.3996658 1.5772055 1.4732665 -1.1085873 -1.0198492 0.050053958 1.3793626 -2.194898 -0.2950449 0.31363425 -2.06648 0.765812 1.095457 -0.866281 0.48243675
40901386 1.4983617 1.602921 0.7516581 -1.3122487 0.7337302 1.3454993 0.5884088 2.0459645 1.4394538 2.009526 -3.7774413 2.6762817 0.39628014 0.7101842 -0.2960219 0.3946375 0.9120409 -2.075688 -0.022469813 0.8362153 2.8270698 -0.31920645 1.2773978 0.18168183 0.7220818 -0.39361092 -0.044548977 -1.1230751 -0.36636323 0.47642317
31304010 0.4028734 0.5738466 0.6747173 -0.9604479 -0.7678111 0.48113152 2.3933535 -1.9412605 -0.69268394 1.6601168 -0.026205175 -0.73186284 -1.6156024 3.4477959 -0.4180573 0.5081983 1.0745884 1.8513997 -2.0593302 1.2934774 3.5710866 -0.87334955 -1.034641 0.022953926 0.28085628 0.1014607 0.65234965 0.14724627 -0.70892817 0.025433097
31205046 1.514522 -1.5927359 -0.88066494 1.0364863 0.39618218 0.7446207 0.20887429 -0.5237238 -0.9957513 0.38111213 1.325849 1.2297904 -0.15882847 -1.1366832 1.22964 -0.8008372 1.0552672 -0.6981368 0.35523224 -0.9106031 -0.8721588 0.3078426 0.39499682 -1.2955182 0.19636574 -0.5639596 -0.03988569 -1.9468791 0.0076042432 -0.22917376
41401425 1.1009475 0.24729916 3.0592813 0.51410633 -1.2034987 0.75862795 0.37974823 -1.2664257 0.89855 3.0716271 -1.9239787 1.7561034 -0.08630433 -1.9570831 0.29914182 1.5722646 1.9898915 -0.7618425 1.4349505 -0.52364457 -2.8207364 0.3367832 1.2328907 0.5959395 1.9081132 -0.54761827 1.2751218 0.614699 -0.5390939 0.09741751
31303021 -0.39546832 0.67110014 1.3242692 -0.7443013 -1.1575996 -0.049437538 -0.47005558 -1.0173358 0.81386894 2.3158824 -0.36499655 1.1173726 1.1624296 2.58642 -0.8503813 0.076398626 2.6255314 -2.0119364 2.1662695 -0.18804336 0.5711005 2.294982 1.7459573 1.843192 -1.684872 -0.7646798 -0.5102758 -1.031115 0.11877065 1.7099332
20104073 2.896627 -2.0975342 3.5483541 -1.1595615 0.47479805 -0.5640046 1.7622544 1.1878043 -0.23311804 1.7568804 -0.6465367 3.043137 -0.2400063 -3.2520185 0.87549794 0.2127256 1.2743223 -0.97234124 2.2470539 0.7627859 0.56725824 1.8387499 1.6883205 -0.73525107 -0.17129226 -3.375292 -0.55811524 0.8973817 0.079356484 -0.10711215
40808041 0.6736221 0.99260324 2.6073074 -0.74913293 0.8483573 1.115102 -0.48772734 2.7095592 1.7246901 2.179839 -1.9442677 1.832582 0.63886964 0.13070695 -1.6607941 -1.3587996 0.57502186 -3.5144403 0.4644328 0.89861065 0.89310396 0.03560469 2.3906844 -0.04117769 0.38554582 -0.8283235 0.7253162 -2.6721106 -0.14525074 -0.08110343
23020148 -0.54987 0.0011663679 0.7547286 3.2800944 0.8313714 5.396598 -1.6489301 -0.14482327 -1.576773 1.6454269 0.03858989 1.1868569 1.1137805 0.6620935 -1.1483518 -1.1749016 -1.0851085 0.9946026 -0.28198287 0.6390261 -0.8246741 1.6638628 1.561246 -1.0852544 -1.033043 0.98186034 -2.4676225 -0.4424408 -2.0009918 0.7006412
31003583 -0.24161203 0.06021152 -2.0218606 1.4000262 -2.9795384 1.0287833 1.2248421 0.74203956 -1.484805 0.7790853 1.780973 0.16678289 0.18747032 -0.10091821 0.38250947 0.48161224 -1.4699559 1.0992996 0.29085585 0.7976688 -0.20082213 3.239072 -1.0091008 0.7608058 -0.37361342 -0.6360758 1.5834975 0.77003914 -0.51736826 -1.0336788
10101519 0.18377867 -1.4863825 0.98639655 3.314617 0.3129432 0.6560416 1.5227892 0.3629582 0.74589425 0.8880281 -4.148274 1.8038659 0.28328007 -0.37757024 -0.69558746 -0.77999955 3.7277727 -2.599043 -0.7472782 2.7402072 1.3956212 1.1642281 0.32645977 -1.0229473 -1.1972588 -0.056106087 1.2938954 -0.044099882 -0.024639312 -0.8539403
40901211 0.42006457 0.54476786 1.319452 -0.6836379 1.4291999 2.2312396 0.3089406 2.3947473 1.6684823 2.5507338 -2.1248603 2.572786 1.1335506 0.82028383 -0.71204394 -0.81382614 0.9895489 -2.5872316 0.5515896 0.7298956 2.3109596 0.27826053 1.9637302 0.95037156 1.4576157 -0.44960135 0.19972551 -2.9907124 1.2850453 -0.016225172
41401360 0.16919638 -0.009304284 3.4984145 0.3251861 -2.5003707 0.94779134 -0.5988551 -2.5626407 1.9798349 2.614726 -2.8181932 1.6143303 -0.7190484 0.3291629 0.6475648 1.4583212 1.2932779 0.10739617 1.3342757 -1.2607557 -5.462965 0.031018924 0.5531718 -0.9652769 3.8587072 1.204017 1.2386166 0.43837574 -0.040003214 -0.25342333
40304361 1.0147864 -0.23423067 2.3547745 -0.28183138 -1.4842304 0.5081565 2.3865774 2.5913768 0.3578516 0.7210305 -3.154774 2.340659 -0.21002148 0.14887534 -1.3323051 -3.3208563 -0.61689854 -0.77132535 0.7318317 1.0404378 1.8809115 -0.29382294 0.7752834 1.5196412 2.0245707 -0.11204181 0.9394207 -2.898895 2.15216 0.7859387
30101450 1.1056353 -0.5474672 0.8806335 1.7329947 0.29389054 -0.6860094 -0.37632197 0.9112999 -0.080623545 1.1577405 1.6229718 0.30066693 -0.14080016 -2.5850337 -0.299311 0.9420736 0.91301674 -1.1214162 -0.11434034 -0.14895043 -0.24064334 1.0283974 0.7166297 -1.0364065 -1.7882375 -1.2119411 -0.042705577 -1.9289892 1.5625126 -1.7340164
50010042 1.0262295 -1.379571 2.6100063 -2.5342999 -1.563941 0.06504025 -1.5353925 -0.6823098 -0.0695657 2.8377512 1.813735 -0.9827604 1.1437466 -1.993853 -1.6989082 -1.7756387 1.9857359 0.50153416 -0.14738572 -0.0512445 -0.6273445 -1.8127711 0.14031336 -1.170313 -1.6110127 1.1685566 -0.7888397 -0.3252595 0.16563994 1.3805315
31003206 -0.18641706 2.406638 1.6832474 5.0075235 -0.5615208 -0.13614383 -0.8558388 0.64638484 -0.24879108 -1.6833568 0.9530792 -1.1744787 0.04206386 -1.6900975 0.99954027 -3.1158884 -3.5683527 0.01379384 -1.2191043 -2.022294 -0.5277799 0.13258798 -4.882027 -3.3018558 -2.9166508 1.8147235 0.9469246 2.64037 0.9199116 0.06588965
31303188 -2.2572436 0.44369698 -0.9756727 -0.52307326 0.53168887 -0.42801997 -0.90637535 -0.44928566 2.1775281 1.0683935 1.0183507 0.21598977 0.44022724 1.9511594 -0.81837237 0.4440736 0.6478678 -0.1095992 -0.27734625 0.61533374 -0.51936626 0.5306985 1.496516 -0.48320106 -0.9769028 -1.9677107 0.43665117 -1.5511091 -0.616865 -1.5450182
40809161 -1.1848007 -1.0765973 2.0267017 -2.4987316 0.6767011 0.4117493 -2.1096716 0.61955756 0.87310386 3.2742524 -0.23288003 -1.9739665 1.1845318 0.6105177 -0.11636013 0.39560875 1.6682669 0.8405512 1.0067933 -1.9802693 1.4265554 1.4419781 0.96433645 0.66247416 -2.081652 -0.41289884 -1.6071299 -2.2218688 -1.2270107 -1.3022983
30907136 -0.10516524 0.08357544 0.4278046 -0.7119231 1.5340667 0.78862476 0.5072988 -0.7591484 0.7346479 2.391395 1.2610277 0.86141926 -0.37178126 -0.19100982 0.035665262 0.71293324 1.4578001 -1.4204217 0.66623914 1.0668851 -0.0067063374 -0.7376192 -0.5365157 -0.5544927 -0.5902617 -0.6148499 -0.10907957 -2.3475602 -0.9998263 -0.2762913
19010125 0.4043103 -0.4949349 1.6820128 1.1589295 0.10328104 1.4088496 -0.34221995 -2.0199957 0.4212015 2.350227 -0.35369727 -0.12714826 1.1819346 -0.9041373 -0.5084943 0.5612457 1.9059496 1.4489313 -0.60563177 -0.33293715 -1.6170744 1.0971293 0.63048035 0.4740548 0.07471129 -1.6558557 0.039829455 2.0877292 1.6910421 1.4052302
25020099 4.102484 -2.902689 -0.8482887 0.68535835 1.4809864 1.352127 0.8287629 1.0913086 0.08972558 -5.302037 0.53691655 -0.63789403 0.57402396 1.6426946 0.04875289 -1.2113445 4.518676 1.6752838 0.20677611 0.8061147 -0.06546923 0.9057455 -1.3351766 0.9399233 -0.1676006 -0.5402845 3.8816788 1.8647249 -1.8701788 0.31427664
41401999 0.9268769 0.26228958 -2.9944842 0.87691534 -0.8478642 -2.0878656 1.2350407 0.9111331 1.7143563 1.1678852 0.40378252 -3.175831 1.7732266 2.0066473 -0.21708047 -0.32712886 0.3870272 -2.3189576 0.9669248 1.1247644 -3.2334864 0.33951014 -1.6889201 0.42307794 -1.6363971 0.07610575 -1.0370227 -0.4519221 1.3143648 -0.48577645
28050720 1.6829299 2.2562437 0.062445536 -0.6077586 0.37611258 0.46154252 -2.2502472 -0.8821412 0.5993783 0.5537365 -2.0691004 2.4161732 0.4733295 0.24097376 -1.1185969 0.7226431 0.49998412 -0.34749442 -0.513631 0.3313772 2.094631 -1.1840634 1.3453978 -2.4234378 -0.3131797 0.046386812 -0.029335681 -0.83005595 0.2856065 0.78117776
31102379 1.800966 0.813287 -4.3856997 1.0244926 -4.092296 1.5583414 1.1707885 2.452826 -2.2071369 1.393269 3.4747806 1.4515967 1.7695795 1.7322537 1.4536353 0.3582834 -1.8910137 0.2698941 4.038062 -1.8992635 1.3186803 1.4571754 -1.1821821 2.471185 0.60222787 -1.0688801 3.0821004 2.5138257 1.2113746 0.6861769
20104219 2.9376652 0.6620137 2.7251022 3.0019789 1.85239 -0.14398967 2.349481 -0.12651269 1.7385708 1.6800827 -1.2817057 1.841162 -1.6773025 -0.7665293 0.5883651 -0.8450829 2.9576 -0.90266126 1.0555716 3.0762863 0.57256734 1.6203058 -0.41656163 -0.36217433 1.9017445 -1.993136 0.04361388 0.47166333 -1.4753511 0.04343662
41401409 0.46165907 0.84925306 3.1672988 0.6758735 -2.5127199 1.5392487 0.5058156 -2.4430048 0.7850562 2.512226 -2.9500957 1.7321216 -1.1879841 -0.12635927 0.21174951 1.0145622 1.5147551 -0.6003647 1.4458603 -0.75757915 -4.699384 -0.8594719 1.2881107 -0.12646696 3.783381 0.6571318 2.3665786 -0.48301056 0.23292825 -0.50337505
31303102 -1.8336833 -0.90809786 0.50338584 1.7035251 -0.79892504 0.93325543 0.15979585 0.8556941 1.3567203 3.0106244 2.1445901 0.71654904 -0.09355954 2.0621133 -0.26393756 1.1731591 -1.0773102 0.7334371 0.9828483 2.095989 1.6028781 1.1982168 0.69147325 0.95456177 -0.7124653 -3.1673298 0.23669875 -1.1712532 -0.20398538 -0.31173405
45020019 -1.383748 0.4579711 2.930048 0.114009544 -2.3615272 -0.33247975 0.49041912 -2.9280665 1.1407253 2.1582556 0.37833214 -0.69966274 1.8849751 1.1282736 -0.3163528 0.6746326 2.2751408 1.6142746 0.6522223 -1.244516 0.07853354 1.9003307 2.1534915 2.2157772 -0.7904283 -1.9981264 0.14884682 0.3422303 0.2583463 -1.0186186
40316521 1.1264626 0.4486497 3.841049 -1.394357 -0.39217198 -0.9088663 2.4249382 2.0256581 0.95894915 0.5409536 -3.4811318 1.2781473 -0.7463926 0.89685255 -1.5640733 -2.044988 1.0221244 -0.8317716 -1.0244592 1.1731431 2.826044 0.1644458 1.4253049 1.6651543 0.42634478 -0.27875006 1.1319158 -2.7297225 1.3079687 0.2686459
36010170 -2.2567847 -2.3267658 -0.7181753 0.21510424 0.9495306 -0.44826725 0.5842835 0.6288596 2.6819046 0.77574354 1.4256061 0.07465696 0.4352614 -2.4015758 0.34582776 -0.5002626 1.0946451 1.8600829 0.697148 -1.61279 0.15796734 -0.7502204 1.4627564 -0.9046648 -0.8458872 0.95004004 0.29853538 1.8003002 0.68246776 -1.2601931
30722551 0.064875096 0.081440195 -0.025775112 1.074166 -1.9309269 -0.43362397 0.20540707 -1.5576221 -0.021017144 0.26748675 1.5460522 -0.35021833 -0.66973007 -1.6246512 -1.3276422 0.41119874 -0.30905363 1.595506 -0.33628643 -2.0675008 1.3037084 0.7859055 0.583002 -0.6213325 -1.1276652 -0.65899956 0.109534234 0.6796355 -0.36704797 -1.9572731
41301102 0.41705945 0.81905365 1.516103 -0.48817542 -0.70038265 -0.0912503 0.3018923 -0.20642096 1.6461973 2.3000617 -1.6604575 2.3270826 0.007129746 2.307747 -1.2235456 -0.41259646 1.9232389 -2.5034626 0.38361725 0.71973264 1.0744628 0.9731699 2.0219939 1.350032 -0.42728058 -0.3291599 0.2553075 -1.8366984 0.121469274 1.3773308
50030078 0.42092416 1.1274551 0.8518555 1.0987958 -2.079827 1.8570977 0.1361878 -4.036618 0.8303076 1.4714408 3.1421177 -1.4185914 1.3786076 -0.38105923 -2.7045546 -1.8385804 2.2068782 -0.5343747 0.8010504 -2.2239935 1.0839692 -0.44153866 1.1640965 -0.53242797 2.370104 1.384035 1.759789 -3.1056955 1.2292901 -0.9216507
40103196 0.60651094 0.7365624 1.521334 -0.801483 -0.2074045 1.0285242 0.21878664 -1.323106 1.1449361 -1.7606704 -3.2112927 1.9192537 -0.12422011 -0.6232871 0.36369035 -2.744696 1.5224131 0.14624658 -1.4633508 1.0601268 -2.8229604 1.5346721 -1.3300847 0.13486241 0.47948107 1.948854 0.7525506 -0.48514184 0.91665995 -0.23712835
43050182 -0.40624475 1.2591784 -3.4498243 -0.5853449 -0.52930045 -0.35797516 -0.61850727 -0.45949182 -0.38728184 2.93356 0.09896887 0.23691452 0.88087684 1.2701466 0.7120215 -3.7048264 -1.216204 -0.5658445 -1.097387 -0.56743515 0.4353215 1.4975574 -1.1790426 -0.6074528 1.9628252 -3.5628545 1.1007407 2.375881 -0.58523387 -3.1303942
40302040 2.0196478 0.020140735 3.085305 -0.29472762 -0.012083273 0.52604884 1.9372543 2.4792848 1.4050236 0.68539625 -1.9386706 0.96723145 -0.8411904 0.075702384 -1.2427356 -2.5253108 0.8069598 -0.987128 -0.8310933 0.783003 1.9790381 -0.35274377 1.0483035 1.3329948 0.5845234 -0.7540034 0.16235848 -2.49447 0.6775813 1.2973229
56110111 1.119554 -0.962691 -1.1416947 0.29153562 -0.21828265 0.3949082 0.7720347 -0.34805027 -0.40294585 0.032461066 0.7796035 -0.4283892 0.08123988 -0.88868016 0.55168915 0.35854563 0.97070295 -0.44464064 0.69451994 -1.7787669 -0.93227184 0.17605168 0.31614855 -0.7447144 0.22644238 -1.0137025 -0.030626072 -0.18907346 -1.3967028 -1.3404428
50060074 1.824346 -0.34261543 2.3367085 -1.9424955 -1.1517792 1.1640298 -0.8932747 -2.5238936 0.024083292 -0.026940819 2.9633276 -1.0874777 1.8209616 -1.6341469 -2.1916916 0.81746066 -0.60040647 2.0838516 1.0073599 -1.3654803 -1.516537 -1.2483205 -0.5806675 0.8825374 -2.5246415 0.98356986 1.2696416 -4.2613153 0.43296516 -0.12078755
42030102 1.1503927 -0.057395328 -0.8831351 -0.4204209 -0.76767516 -0.80225974 -0.79221183 -2.125137 -0.5657104 1.2923282 1.812906 1.0952374 0.6755923 -1.127029 -1.4156935 2.349028 1.2791164 0.0056185583 -0.05424114 0.14811613 0.2779061 -0.12770747 1.5620643 -2.216341 -1.3997744 -1.160026 -0.38354644 -0.9186352 0.603064 0.75872546
42030218 1.1431239 -0.58736324 -0.90039176 0.3559636 0.08090277 -0.3898656 -0.28960392 -1.8387274 -0.94046545 0.7451549 3.1186118 -0.19188082 0.34285346 -0.04395192 -1.9814624 2.7575293 2.1629143 -0.76788855 0.5999751 -0.4465549 -1.0763748 -0.16549875 1.3114069 -2.0042555 -1.3839233 -2.4340339 -1.753857 0.65624493 0.6618288 -0.6187509
28042000 -1.5583266 2.3131661 -0.1891427 -0.7793198 -0.14814311 0.21611209 0.92624044 1.6305144 -0.26603583 -0.11841139 1.0007592 -0.6262341 -0.0437178 -1.0869584 -1.9317791 1.4589536 -2.1799352 0.5729725 1.6852527 1.5060228 -0.10850316 -1.3347018 -3.1041036 -0.49906453 -1.6138278 -0.72320557 0.5723667 1.9730928 -2.1225848 -0.73714983
30306027 3.0038753 -0.71651644 2.3327107 -2.178757 -2.6431854 3.394474 -0.027206173 2.8351915 -0.21065749 -0.8978838 0.89235735 2.0654635 -1.1994135 -1.9689646 -2.4823565 0.40607554 0.4452934 -3.6737177 0.3436456 -1.9866737 -0.43546858 -0.2595611 -1.3042368 0.20073491 -0.66605276 -1.1788493 0.61898625 -1.2477686 -1.9833392 2.865362
41501144 2.666595 -1.1220932 2.7778115 -2.913897 -1.4539719 1.6368389 -2.426004 3.967337 0.7927482 0.33709735 0.15828046 2.2172244 -0.34217787 -0.6293043 -1.0678188 -0.45689252 1.8865149 -3.5259967 -0.34877452 -0.6813033 0.21553515 -0.7097061 -1.2349699 -0.9918697 0.04766077 -1.2865844 0.4424673 -1.1954205 -1.7072749 2.2603164
28062183 -1.4106735 -1.4545871 0.11050379 0.47249678 0.42599416 2.9375973 -1.5101736 -0.8118826 -0.3098591 3.3042464 0.25075272 0.1863458 0.3508164 -0.19190718 -0.31709552 -0.69307524 0.7081106 2.1337771 1.3573523 0.041479282 -0.7696129 1.576377 0.6797294 1.1111811 -1.9878013 0.14691877 -1.8474637 -1.9833263 -1.4422129 0.27626595
40901246 1.4263768 2.0205402 -0.02104887 -1.7140385 -1.4886891 0.19759302 3.7191682 -0.30462766 -1.7373468 0.1573631 -4.409959 1.864521 -2.0471745 2.931317 0.61967784 2.0997014 2.0931253 1.5262212 -0.3377315 1.6489209 4.0777287 -1.1155728 -1.1661668 0.28574467 0.3597341 0.0402139 2.0870192 2.0593562 -1.2840716 1.8910171
50140019 -0.3063504 -0.9182528 1.5682218 -0.8713952 -3.6487432 0.37762126 -2.3582964 0.44548723 1.6714824 0.40741298 3.343491 -0.2951814 1.4504433 -1.2054266 -1.1573735 0.66328263 1.4975389 2.27969 0.34067717 0.29842687 -0.8932295 -3.505542 -1.651717 -0.699697 -0.9641292 0.70285225 0.30479375 -0.7660469 -0.5810718 0.9332299
20010176 2.0269663 1.7783817 0.90229565 -2.8232033 0.7370902 1.8516227 -1.69935 -4.0569596 2.4885018 1.9659569 2.2564688 1.4837713 1.9810847 -2.2286367 0.8374932 -1.082597 -2.321618 1.1027795 1.5885195 2.564206 -0.024816263 -2.2612536 -2.5209208 -2.3727643 -2.362203 -1.7899741 -0.5745488 -0.14465465 0.16662477 -0.29752856
50020021 1.9570504 0.46619973 -0.7461125 0.7943417 -0.81289846 -1.0843341 4.7516484 2.4764123 -2.2890403 -0.06978721 2.4004345 -2.4114332 0.46438754 -1.1494644 2.29723 -3.378464 0.46659526 1.9320772 0.60383457 2.6602998 0.36452222 -2.7798057 -0.66019505 -3.0209458 0.14396887 3.142052 1.2826021 0.6739623 0.41754982 -0.20366304
40308383 0.61847067 1.1486667 0.30724677 -0.12344349 -3.3374074 0.3272497 2.080857 1.5990549 -0.6325665 -1.5525906 -1.8509218 4.4919844 -1.1728363 0.8455528 -1.447176 -1.6583257 -0.78607386 -0.551066 1.3877871 1.5702571 2.0090709 -0.4520949 0.4864069 0.030036634 2.6187491 1.0591059 1.4770633 -2.8205009 2.7672865 0.38821602
51010046 0.38315892 0.7003833 3.2091374 0.59871393 1.7683718 -0.09992798 0.24154328 -2.0301023 -1.5160012 -1.1536734 -0.68087256 -0.58427113 -2.4273627 -0.4015979 0.11958922 -3.082107 3.666587 2.8522007 -3.72806 -0.32222766 -3.2668262 -1.0396211 -0.9475713 -1.1257083 -0.80066174 -1.1781116 -0.2380204 -2.0071926 -2.92586 0.47180295
31103472 2.4865575 -0.12531121 -3.132824 0.69970924 -3.3974087 0.8142613 -0.43416014 1.6762625 -1.9812819 1.0126715 2.0233061 1.0477781 1.4131854 1.9032332 0.8602041 0.2871099 -1.5442922 -0.35641393 1.5773271 -2.053328 1.257664 0.34205332 -0.85773957 0.8614464 0.3321034 -1.3277129 2.3168237 1.6401987 2.5883856 1.4720999
30731216 -0.30506408 -4.026323 -0.56491745 3.04103 -0.43787432 -0.9806707 1.5156052 -0.29909948 -0.0832645 -1.0049194 0.044929814 2.0273547 -2.1918359 -0.16504171 1.1145272 -1.0736701 1.7176576 1.8751656 0.06723527 -2.246604 2.587169 -1.5459837 2.65317 -2.7167337 0.2667052 -4.37809 2.2681835 2.0216436 -0.07685294 -0.30019492
50040049 0.8138018 -0.78922164 0.032279555 0.31966665 -1.6823611 -0.047894385 0.9757756 -0.5366745 -1.26147 1.0649034 2.4161758 -0.8491658 0.6895062 -1.5210817 -0.13495955 -0.7436919 0.5726149 1.1294612 0.5475646 -0.44775182 0.5178282 -0.0065572173 1.2095263 -1.1496245 -0.26217586 1.0064845 0.114021614 -0.73095936 0.14686549 -0.4228744
34010122 -2.615129 -0.7661136 -0.14620562 0.1819434 -0.056079242 0.06805523 1.9451345 1.4707569 1.2203598 -1.6179192 2.7955463 0.8036231 0.76583415 -1.4856927 2.6311831 1.25604 -1.5238577 0.80243105 2.3009055 -1.517425 0.2574519 -1.0474405 0.4939569 -3.0124867 -0.34516364 1.4710593 2.31102 0.9562754 -1.9635711 -0.6722587
15010074 -0.6549067 2.423383 0.7675053 1.9690176 -0.09797852 0.80582106 0.41382205 4.1462164 -1.2103591 1.0096973 2.6976156 0.38770416 2.1788106 1.2560422 1.6045203 -0.75251347 -2.1410291 0.41502318 1.3535297 2.504027 1.1639638 -1.2937019 -5.7953477 -0.8518814 1.3354628 1.5665945 0.7476766 -0.0061330195 -0.98320067 1.4708295
40103498 2.0883367 -1.0800205 0.1758167 -0.9736491 0.24133873 -1.2933257 3.1489646 -0.9508156 -0.14804648 -0.7267662 -2.1453307 -0.37389413 0.032947455 -0.7844653 -0.15928718 -0.57035017 3.4174395 -1.1060265 -0.75030047 2.365611 -2.3942401 0.6676176 -1.503085 -1.0589435 0.28763586 2.400882 0.044742357 -1.227906 -0.13202769 -0.065821044
42030153 0.52509815 0.20664445 -0.8154232 0.18652605 -0.059247773 -0.6770879 -0.12613964 -0.55138767 0.22423917 0.9738487 1.7874756 -0.18395495 0.90253943 -0.6485771 -0.40522844 0.3730638 0.5511689 -0.6972538 -0.17753962 -0.94577426 -1.4175377 0.28868967 1.2002014 -0.77228147 -0.49563083 -1.4416145 -0.043346707 -0.031864874 0.0011071241 -1.6040295
42020093 0.18586436 0.07801359 0.28169462 1.795622 1.0720732 -0.001963347 1.1641561 -0.6417301 -0.60504365 0.6800103 0.70062757 0.09221073 -1.9900429 -1.2262785 -1.2904972 1.0230724 1.2342945 -1.7763085 0.7934236 -1.2304124 -0.24405849 0.5597136 1.1741545 -0.84740925 -3.370313 -2.607971 0.7635537 1.3923755 1.8033885 -1.4588753
41301048 1.0842129 -0.5735477 1.2167987 1.2938565 1.5414215 0.4531003 1.9233017 0.22082208 -0.014059443 1.8032949 -2.324215 0.14574012 -0.034203205 -1.3299748 -0.37081558 0.6289547 2.5587144 -0.3728367 0.95020473 0.70554423 0.038790062 0.62428266 0.59578973 1.5710833 -0.8049647 -3.2013452 -0.03796675 -0.16459616 -1.1134703 0.86439455
21010196 -0.82659656 0.65683055 1.9732533 -0.37607786 -0.19837978 -0.6879455 0.82237965 -0.9436236 0.8294985 2.5956502 0.17200346 0.6360484 1.3480622 1.8113369 -1.2235103 0.28370434 2.0277221 -1.1980907 1.2625401 -0.005152573 0.030296287 1.8822501 1.9316466 1.6878828 -0.4434085 -1.6728861 -0.7719049 0.085959904 0.18952577 0.2049386
41001036 0.23417576 0.46900916 1.3297491 -0.4657961 0.5514571 -0.57609934 0.9091859 -0.671283 -0.7212795 -0.32982475 -1.0209043 3.6187444 1.171857 -1.377654 -1.5581177 -1.3781348 0.6770353 -1.150827 0.20628405 1.1504387 -1.7057234 0.43350244 0.2708019 -0.987089 2.9448593 -0.029905 0.8765664 -3.505454 0.4644853 0.8427206
40316378 1.690334 -0.7164737 2.9139493 -0.07966515 -0.7393095 0.43691105 0.45862377 3.3908737 1.8355248 1.4384135 -2.997121 1.5466735 -0.20496902 1.7158797 -1.3339795 -2.4535997 0.2854614 -2.537802 -0.79505014 -0.040668905 1.3408979 1.7488286 2.5512683 1.403834 0.29571354 -0.5741255 -0.24955183 -2.0375485 1.155013 0.20648675
15020541 0.3588808 3.9093168 1.6514006 2.1804106 -2.3757195 -1.5838684 -0.34491304 2.742787 0.16996528 2.48194 -1.4207026 0.800662 1.5332373 2.8262444 0.7830454 -0.38116798 -0.27577135 1.756219 0.26645997 1.1450541 -1.9486829 -1.0866207 -4.059348 1.0357324 2.6848981 -2.334107 -1.3728296 -0.57220745 -1.9441813 0.99143535
31102077 2.2083888 0.93390733 -3.652301 1.812866 -3.469608 1.8447989 0.8633699 3.240836 -2.2989945 0.7859259 2.628867 0.4319507 1.4687539 2.107697 0.7798843 -0.048307214 -2.8139575 -0.48333898 3.5465667 -1.861255 2.2502742 0.041231386 -0.6408205 1.237862 0.39992532 -0.84490633 2.1409826 2.2697537 2.3914912 1.0094589
56120087 2.8565023 -2.033508 1.3318073 1.6507406 -0.3931374 -2.5736158 1.0031574 0.9102539 -0.61454505 0.1377454 1.1719195 0.23890044 0.044613764 0.6458584 0.016138626 1.5163587 -2.4025269 -1.3346782 2.007738 -1.7213815 -2.9725478 -0.47651884 0.7431568 -1.9843041 1.0607309 -1.8807484 1.0588892 -1.2266628 -1.6159946 -1.5316755
45020051 -2.1180863 -0.05122254 1.363352 0.25927582 0.4855537 0.21599123 -0.7045802 -1.3727027 2.4761722 1.1178514 -0.031515267 0.3685985 2.4802718 1.6127359 -0.48478177 0.61944896 2.0724282 1.7646023 -0.09683903 0.843949 -0.8116543 1.260465 1.016606 2.1121216 -1.0472369 -2.5072699 0.9720753 -0.41792682 0.5292471 0.6236635
51010127 1.0661533 0.19039343 3.3381948 0.38473463 2.2583916 -0.074050784 0.3517329 -2.2873867 -1.3943986 -1.3775601 -0.5264404 0.45268172 -2.505892 -0.033261735 -0.6068411 -2.6799486 3.1376538 2.1036685 -3.4642813 -0.7451907 -3.5417638 -1.1335353 -1.2519367 -0.7015688 -0.36109838 -0.8100847 -0.0010784016 -1.6616801 -2.2256236 0.13061824
40201082 -0.14943442 -0.33351392 -0.6518686 0.54688317 0.32520697 2.8792307 -2.0427303 1.147364 0.40658444 0.92517406 1.3809093 3.7910044 -0.2674129 0.81558114 -0.74963486 -1.5627652 -1.5731077 -1.531829 -0.20244676 0.7943327 -0.7954745 1.9005966 1.5192182 -1.9406749 -1.5385697 0.90065444 -2.1218927 -2.8937066 -1.0906271 2.8089669
40701069 2.5658054 -0.12658823 1.0130402 -1.8262604 1.3334947 4.2082367 0.039181773 2.7937222 -0.58602566 -1.438513 -1.3597335 2.9929526 0.84225214 -1.7733215 -0.4754427 -0.5553667 -0.4661471 -1.7903787 1.8843325 -0.68935096 0.17832185 -0.06293267 -2.0259793 1.432872 0.4877015 -3.7089646 -1.1687828 -0.32271656 -4.117004 -0.5432097
31005470 -1.003852 -0.73721623 -1.259673 1.2525767 -1.5634682 0.7084065 -0.5116798 -0.33315498 -0.107090496 2.0904875 1.0254416 0.45682254 0.7211821 -0.2190572 -0.2997813 -1.1728904 -1.6320024 2.037868 -0.012410925 0.5297205 0.99897337 2.2929616 -0.13475123 0.93639684 -1.3400407 -0.59748065 -0.004583558 -1.3425673 0.46535602 -0.43662333
25070070 -1.10046 -0.851022 -0.8726832 0.9288512 0.9321385 2.269155 0.17568795 0.005795755 3.6296043 -1.055394 0.8145222 -1.8728081 1.18792 -0.3118848 -1.7252992 0.744067 0.21100834 -1.1605123 1.0512074 1.7074217 1.2205656 -1.8874687 -0.8474201 -2.2612875 -0.51327485 -1.5101904 3.9433267 1.5201309 -0.22056021 -1.77061
20010150 -0.07249059 -0.66861385 0.3998766 -0.8754817 0.8697884 2.7675104 -1.5477358 -0.12215821 1.0540674 0.7007914 1.3069453 -0.55521286 1.1657448 -1.1783514 -0.12848654 -0.35978383 -0.51561683 1.2008535 1.5005472 -0.8295686 -0.40243363 -1.3011094 -0.65825987 0.6199995 -1.821884 -1.0022361 -0.83264846 -0.71519756 -0.8654741 -1.4390502
30602076 -2.113906 -2.5311017 2.6542108 -0.09846265 0.29167798 -2.0688305 -2.662417 -0.3468374 -0.8245694 2.9697187 0.52691346 -2.6278446 1.3963661 1.9478438 0.21671504 2.232478 1.174521 0.29769817 -0.22153524 -0.9463202 2.1943197 1.5989746 1.1526532 -2.9761937 -2.9898686 -2.246156 0.8527523 -2.5058172 0.710222 -0.9525676
30710022 -0.16444194 -3.2219572 1.5739042 1.6842309 -1.6935729 -0.10971671 1.485259 -0.14104584 0.15329506 -3.240683 0.022873413 1.3686454 -2.2683473 -1.2776127 1.7488338 0.28513205 0.505874 2.609777 0.3678899 -1.2148015 1.6680219 -0.43476173 0.79805726 -2.5267947 -0.50357586 -0.27907032 4.3396583 0.40177613 1.9095279 -1.6317184
31040012 2.621636 -1.0602523 -4.478983 1.0382363 -1.9359512 1.8031745 -0.12851629 0.0936641 0.6915894 -0.94693446 0.3215352 0.6469475 1.2698483 5.083383 1.0316074 0.6868105 0.06548211 -0.84138733 0.20849891 -0.9630575 -3.857656 0.01593691 -0.7295777 1.3161998 1.010233 1.7305603 1.8167245 0.5386719 1.5197948 0.9703224
32060084 0.33419886 -0.02691075 -0.97583973 3.5377452 1.1129194 2.2095625 -0.659513 -0.54383326 -1.0354311 0.4459506 -0.50769335 -0.3861085 1.2620307 -0.39747337 -0.10494331 -1.1599084 -0.4918746 1.0692112 -1.1500918 -0.09946239 -2.7148666 1.5865065 0.3598987 -0.5075982 -0.7244179 1.0109125 -0.12783298 -0.6946209 0.24827506 0.22751813
43080162 0.968508 -0.46601698 -1.8405763 0.17487453 -0.3427393 -0.19894172 0.4685676 0.60827434 0.13693081 0.8813066 -0.23934363 -1.1482493 0.43225282 1.2443827 0.68053514 -0.077170886 0.37640738 -1.0595357 0.39337814 -1.0391514 0.35010663 0.5982769 0.1948355 -0.7619093 1.1838876 -0.83776987 -0.22165151 -0.32604435 -1.62466 -3.480285
28040481 0.61251074 3.7481258 1.015733 0.65113884 -1.8922029 0.8596169 -3.0064766 -0.90678513 -2.287725 0.1309911 -2.6343853 2.5094464 -0.39912352 1.4941025 -0.46892202 3.742617 -0.79312074 2.5327427 0.09472128 0.3337632 0.9268346 -1.6973134 -0.3829815 -2.8105857 0.19372587 -1.4700139 0.8729512 -0.9691942 0.08099439 2.8309758
28150350 -0.6877358 0.6882742 -0.8512529 -0.1527781 0.62930745 0.676064 -0.7710854 0.27016816 -0.41242594 0.99738747 -2.2386374 -1.0844384 1.1133271 0.12351584 -2.7970438 0.08051741 1.8177005 -0.6149269 0.19808152 -2.3992932 -1.6296656 -1.1101638 1.5870049 0.2669451 -1.4706442 -1.1558362 -0.7702824 0.3749919 -1.9984359 1.4967748
40808084 0.462525 0.19678745 2.9452314 -0.33060697 2.881806 -0.52536845 -1.290377 0.41079667 1.6576151 2.77045 -0.31404808 1.0328298 0.020139113 1.6523061 -1.6390091 -0.40826112 0.55903804 -2.8789606 -0.89984715 1.3710009 1.1781076 0.96225417 1.3482636 -1.5436897 -0.68071914 -1.6328355 1.7334584 -1.970299 1.9017383 0.504219
28020022 0.5709989 -0.90233654 -1.2596884 0.23661418 -0.24472839 -0.72282475 1.0564975 0.16097815 -0.7050324 -0.13840476 -0.068176925 -0.44450775 0.7330051 -0.14369239 -0.26106408 0.29141322 0.96016103 -1.1455748 0.855413 -1.6561716 -1.3597337 -0.6255394 0.85610354 -1.4801861 1.2436076 -0.51764846 0.04450056 0.019343331 -1.6402512 -1.5034628
80044956 -0.50936705 2.812681 2.5688634 2.6218994 0.3063983 1.0840573 2.1728885 4.709805 -2.113661 0.23810984 0.99958056 -4.6501226 2.2320027 0.40592867 0.49691203 -1.4158307 -0.28633726 2.043821 1.5306282 1.3351874 0.515085 1.6214559 -2.679944 0.5818184 -0.42624006 2.851935 -0.65592045 -0.63206726 4.061248 1.0157965
20010168 0.8272892 3.0908241 0.90878814 -2.0639234 0.9847119 1.2202216 -0.3265222 -2.3121848 1.2997875 -0.21801937 1.9883901 1.9071059 1.2338556 -2.2738054 1.2072794 -2.4259136 -2.5882883 0.8398615 1.1945045 2.6538942 0.2946134 -2.7641501 -2.9697766 -2.3060555 -2.8346448 0.0031338907 -1.3228644 0.6709715 0.054859877 -1.1966792
30712041 3.3075879 -0.85002315 0.9740522 0.57199967 1.5895536 -1.254862 0.46695974 2.893906 4.3657403 1.559163 0.93001264 2.3889172 -0.2935752 -0.88160086 -1.6670532 -1.1677339 3.2355072 -1.8470948 2.0852423 -0.21393068 1.5107148 -0.8774726 0.17769742 0.9650645 1.982376 0.8654369 0.55936897 -0.22213997 1.3074933 0.8219439
41301994 1.6712177 -0.79339576 -0.99906164 0.6878066 -0.33051988 0.5721018 0.68831855 0.123242944 -0.6013494 -0.1247914 -0.7727167 -0.8260275 1.3886511 0.37632388 1.5918705 -1.649065 2.0525763 -1.6943457 -1.3629248 0.07267989 -2.07748 0.74522275 -1.595236 0.6873558 -2.194894 0.61787146 -0.4282512 -1.602401 2.0936837 0.42942902
56120036 2.5484264 -1.4691573 0.02304393 2.0354247 -0.3063923 -2.583685 1.8679566 1.2028494 -1.1039602 0.54604703 0.9553569 0.10276488 0.013896814 0.0451938 -0.7035821 1.4157937 -2.419127 -1.7525256 2.045996 -1.6783761 -2.6421485 -1.4968904 1.0546515 -2.558359 0.7804557 -1.2112274 -0.3476795 -1.3763319 -0.5592197 -1.3213673
19010303 0.30441672 -0.63082623 1.3068278 2.7297118 -2.5201602 0.18016167 -1.3635577 -2.0646443 -0.54059196 1.7155106 -0.34305125 -0.62019646 -0.30389187 -2.0425735 -1.8847394 1.1561292 1.5605562 1.4495848 -1.1406559 -2.0364497 -0.103450045 0.76832527 0.6444727 -0.5469229 -1.2795277 -1.6665343 -0.0597828 1.3022753 0.62386423 0.043751437
